{"learner":{"attributes":{},"feature_names":["open","high","close","volume","price_range","price_change","ma_5","ma_20","volatility"],"feature_types":[],"gradient_booster":{"model":{"cats":{"enc":[],"feature_segments":[],"sorted_idx":[]},"gbtree_model_param":{"num_parallel_tree":"1","num_trees":"100"},"iteration_indptr":[0,1,2,3,4,5,6,7,8,9,10,11,12,13,14,15,16,17,18,19,20,21,22,23,24,25,26,27,28,29,30,31,32,33,34,35,36,37,38,39,40,41,42,43,44,45,46,47,48,49,50,51,52,53,54,55,56,57,58,59,60,61,62,63,64,65,66,67,68,69,70,71,72,73,74,75,76,77,78,79,80,81,82,83,84,85,86,87,88,89,90,91,92,93,94,95,96,97,98,99,100],"tree_info":[0,0,0,0,0,0,0,0,0,0,0,0,0,0,0,0,0,0,0,0,0,0,0,0,0,0,0,0,0,0,0,0,0,0,0,0,0,0,0,0,0,0,0,0,0,0,0,0,0,0,0,0,0,0,0,0,0,0,0,0,0,0,0,0,0,0,0,0,0,0,0,0,0,0,0,0,0,0,0,0,0,0,0,0,0,0,0,0,0,0,0,0,0,0,0,0,0,0,0,0],"trees":[{"base_weights":[-1.2131417E1,-5.4862637E3,2.1939397E3,-6.204456E3,-3.1787385E3,-2.0029662E2,2.7334302E3,-6.630496E2,-5.585136E2,-3.809E2,-2.3467708E3,-1.0201696E3,8.278255E2,2.2065706E3,3.6609958E3,-2.5423161E2,-1.745642E2,-1.2860162E3,-7.8420447E2,4.6710916E2,1.0515488E3,1.8520734E3,2.5645615E3,3.34316E3,4.379244E3,-1.421941E2,-1.1490289E2,-8.855886E1,-5.44089E2,2.7836239E1,5.530672E2,8.745913E1,1.13538284E2,1.5420132E3,1.9915828E3,2.3972327E2,2.7425668E2,3.105736E2,3.5794586E2,4.0672906E2,4.7080222E2,-6.079307E1,-3.2051243E1,-5.077214E0,8.331299E0,4.1279808E1,6.3900967E1,1.4066235E2,1.6360332E2,1.852032E2,2.0685977E2],"categories":[],"categories_nodes":[],"categories_segments":[],"categories_sizes":[],"default_left":[0,0,0,0,0,0,0,0,0,0,0,0,0,0,0,0,0,0,0,0,0,0,0,0,0,0,0,0,0,0,0,0,0,0,0,0,0,0,0,0,0,0,0,0,0,0,0,0,0,0,0],"id":0,"left_children":[1,3,5,7,9,11,13,-1,-1,-1,15,17,19,21,23,-1,-1,25,27,29,31,33,35,37,39,-1,-1,-1,41,43,45,-1,-1,47,49,-1,-1,-1,-1,-1,-1,-1,-1,-1,-1,-1,-1,-1,-1,-1,-1],"loss_changes":[3.842683E10,1.4950011E9,2.93005E9,1.4661222E8,1.0589542E8,3.531891E8,8.964987E8,0E0,0E0,0E0,6.96416E6,1.3607696E7,1.4519136E7,1.4538086E8,1.380823E8,0E0,0E0,3.7712E5,2.585496E6,2.741015E6,6.982E5,2.279616E7,1.088E7,1.5139328E7,1.569024E6,0E0,0E0,0E0,3.76091E5,6.092216E4,4.71576E5,0E0,0E0,1.1728E5,5.64608E5,0E0,0E0,0E0,0E0,0E0,0E0,0E0,0E0,0E0,0E0,0E0,0E0,0E0,0E0,0E0,0E0],"parents":[2147483647,0,0,1,1,2,2,3,3,4,4,5,5,6,6,10,10,11,11,12,12,13,13,14,14,17,17,18,18,19,19,20,20,21,21,22,22,23,23,24,24,28,28,29,29,30,30,33,33,34,34],"right_children":[2,4,6,8,10,12,14,-1,-1,-1,16,18,20,22,24,-1,-1,26,28,30,32,34,36,38,40,-1,-1,-1,42,44,46,-1,-1,48,50,-1,-1,-1,-1,-1,-1,-1,-1,-1,-1,-1,-1,-1,-1,-1,-1],"split_conditions":[5.428463E4,5.1148316E4,5.716922E4,4.974295E4,5.280854E4,5.5689348E4,5.8807727E4,-6.630496E2,-5.585136E2,-3.809E2,5.371093E4,5.480504E4,5.6679664E4,5.808652E4,5.9752098E4,-2.5423161E2,-1.745642E2,5.4564938E4,5.515926E4,5.618215E4,5.6884637E4,5.7624195E4,5.8452656E4,5.9213758E4,6.029102E4,-1.421941E2,-1.1490289E2,-8.855886E1,5.5404773E4,9.25459E1,5.6412664E4,8.745913E1,1.13538284E2,5.7404883E4,5.7817047E4,2.3972327E2,2.7425668E2,3.105736E2,3.5794586E2,4.0672906E2,4.7080222E2,-6.079307E1,-3.2051243E1,-5.077214E0,8.331299E0,4.1279808E1,6.3900967E1,1.4066235E2,1.6360332E2,1.852032E2,2.0685977E2],"split_indices":[2,2,2,2,2,0,2,0,0,0,0,2,2,0,2,0,0,0,2,2,0,2,2,0,2,0,0,0,2,4,2,0,0,0,2,0,0,0,0,0,0,0,0,0,0,0,0,0,0,0,0],"split_type":[0,0,0,0,0,0,0,0,0,0,0,0,0,0,0,0,0,0,0,0,0,0,0,0,0,0,0,0,0,0,0,0,0,0,0,0,0,0,0,0,0,0,0,0,0,0,0,0,0,0,0],"sum_hessian":[3.18E3,9.13E2,2.267E3,6.95E2,2.18E2,4.17E2,1.85E3,4.06E2,2.89E2,1.22E2,9.6E1,2.32E2,1.85E2,1.182E3,6.68E2,7E1,2.6E1,1.07E2,1.25E2,7.2E1,1.13E2,5.97E2,5.85E2,4.67E2,2.01E2,4.9E1,5.8E1,8.6E1,3.9E1,1.2E1,6E1,4E1,7.3E1,1.89E2,4.08E2,3.09E2,2.76E2,2.4E2,2.27E2,1.1E2,9.1E1,2.9E1,1E1,5E0,7E0,2.5E1,3.5E1,8.4E1,1.05E2,1.54E2,2.54E2],"tree_param":{"num_deleted":"0","num_feature":"9","num_nodes":"51","size_leaf_vector":"1"}},{"base_weights":[2.503623E1,-4.929145E3,1.9697587E3,-5.5499883E3,-2.7717478E3,-1.544524E2,2.46783E3,-5.910287E2,-4.8569638E2,-3.3373486E2,-2.1250935E3,-9.268664E2,7.455443E2,1.991631E3,3.297506E3,-2.2895865E2,-1.5878404E2,-1.1064827E3,-6.6631244E2,4.2147574E2,9.6077826E2,1.6498511E3,2.3049792E3,2.9789905E3,3.9047078E3,-1.23399895E2,-9.5483894E1,-7.572884E1,-4.8091876E2,-7.338021E0,5.0986887E2,7.890075E1,1.0278446E2,1.377755E3,1.785853E2,2.1362129E2,2.4716948E2,2.7867682E2,3.1771088E2,3.6126654E2,4.2181754E2,-5.3678467E1,-3.2911037E1,-1.412666E1,3.791634E0,3.2885887E1,5.507074E1,1.283867E2,1.4969872E2],"categories":[],"categories_nodes":[],"categories_segments":[],"categories_sizes":[],"default_left":[0,0,0,0,0,0,0,0,0,0,0,0,0,0,0,0,0,0,0,0,0,0,0,0,0,0,0,0,0,0,0,0,0,0,0,0,0,0,0,0,0,0,0,0,0,0,0,0,0],"id":1,"left_children":[1,3,5,7,9,11,13,-1,-1,-1,15,17,19,21,23,-1,-1,25,27,29,31,33,35,37,39,-1,-1,-1,41,43,45,-1,-1,47,-1,-1,-1,-1,-1,-1,-1,-1,-1,-1,-1,-1,-1,-1,-1],"loss_changes":[3.0589637E10,1.1833856E9,2.4126413E9,1.4458266E8,6.678912E7,3.023948E8,7.231652E8,0E0,0E0,0E0,4.9368E6,1.0213872E7,1.3614904E7,1.2214272E8,1.1833446E8,0E0,0E0,1.470896E6,1.288712E6,3.111886E6,5.71432E5,1.8484736E7,1.1910912E7,8.092672E6,5.634048E6,0E0,0E0,0E0,1.20171E5,9.62691E4,3.21564E5,0E0,0E0,2.38592E5,0E0,0E0,0E0,0E0,0E0,0E0,0E0,0E0,0E0,0E0,0E0,0E0,0E0,0E0,0E0],"parents":[2147483647,0,0,1,1,2,2,3,3,4,4,5,5,6,6,10,10,11,11,12,12,13,13,14,14,17,17,18,18,19,19,20,20,21,21,22,22,23,23,24,24,28,28,29,29,30,30,33,33],"right_children":[2,4,6,8,10,12,14,-1,-1,-1,16,18,20,22,24,-1,-1,26,28,30,32,34,36,38,40,-1,-1,-1,42,44,46,-1,-1,48,-1,-1,-1,-1,-1,-1,-1,-1,-1,-1,-1,-1,-1,-1,-1],"split_conditions":[5.4280004E4,5.145672E4,5.7151336E4,4.99587E4,5.2819926E4,5.5689348E4,5.8813137E4,-5.910287E2,-4.8569638E2,-3.3373486E2,5.3541348E4,5.4909637E4,5.665949E4,5.805945E4,5.968593E4,-2.2895865E2,-1.5878404E2,5.4696312E4,5.5161293E4,5.6106305E4,5.6884637E4,5.7628645E4,5.8428734E4,5.9183574E4,6.0183176E4,-1.23399895E2,-9.5483894E1,-7.572884E1,5.542284E4,1.5183975E2,5.6313348E4,7.890075E1,1.0278446E2,5.7462938E4,1.785853E2,2.1362129E2,2.4716948E2,2.7867682E2,3.1771088E2,3.6126654E2,4.2181754E2,-5.3678467E1,-3.2911037E1,-1.412666E1,3.791634E0,3.2885887E1,5.507074E1,1.283867E2,1.4969872E2],"split_indices":[0,0,0,0,0,0,0,0,0,0,7,0,0,0,0,0,0,0,0,6,0,0,0,0,0,0,0,0,0,8,0,0,0,0,0,0,0,0,0,0,0,0,0,0,0,0,0,0,0],"split_type":[0,0,0,0,0,0,0,0,0,0,0,0,0,0,0,0,0,0,0,0,0,0,0,0,0,0,0,0,0,0,0,0,0,0,0,0,0,0,0,0,0,0,0,0,0,0,0,0,0],"sum_hessian":[3.173E3,8.94E2,2.279E3,6.93E2,2.01E2,4.33E2,1.846E3,4.51E2,2.42E2,1.05E2,9.6E1,2.33E2,2E2,1.175E3,6.71E2,7.1E1,2.5E1,1.36E2,9.7E1,8.1E1,1.19E2,5.65E2,6.1E2,4.44E2,2.27E2,7E1,6.6E1,6.3E1,3.4E1,1.4E1,6.7E1,3.7E1,8.2E1,1.92E2,3.73E2,3.1E2,3E2,2.33E2,2.11E2,1.24E2,1.03E2,2.3E1,1.1E1,3E0,1.1E1,1.4E1,5.3E1,1.14E2,7.8E1],"tree_param":{"num_deleted":"0","num_feature":"9","num_nodes":"49","size_leaf_vector":"1"}},{"base_weights":[4.552871E1,-4.491086E3,1.7817686E3,-5.0367036E3,-2.7326765E3,-2.6604617E2,2.2096494E3,-5.420433E2,-4.575584E3,-3.2412546E2,-2.0843818E3,-8.396773E2,6.3080524E2,1.7846926E3,2.9547324E3,-4.740793E2,-4.1705792E2,-2.2998497E2,-1.8210005E2,-1.0998171E3,-6.40001E2,3.8448895E2,8.195704E2,1.4600935E3,2.0690303E3,2.661931E3,3.460904E3,-1.2161861E2,-9.719147E1,-7.2800604E2,-4.2944424E2,-3.2565105E1,4.6279675E2,6.719783E1,8.644178E1,1.1880101E3,1.590576E3,1.8709529E2,2.1747452E2,2.4668042E2,2.794312E2,3.215541E2,3.7878015E2,-7.8037544E1,-6.2478127E1,-4.9159832E1,-2.6114286E1,-5.7448864E0,1.2057813E1,2.939961E1,4.8730095E1,1.0775382E2,1.2766595E2,1.4900223E2,1.6789726E2],"categories":[],"categories_nodes":[],"categories_segments":[],"categories_sizes":[],"default_left":[0,0,0,0,0,0,0,0,0,0,0,0,0,0,0,0,0,0,0,0,0,0,0,0,0,0,0,0,0,0,0,0,0,0,0,0,0,0,0,0,0,0,0,0,0,0,0,0,0,0,0,0,0,0,0],"id":2,"left_children":[1,3,5,7,9,11,13,-1,15,-1,17,19,21,23,25,-1,-1,-1,-1,27,29,31,33,35,37,39,41,-1,-1,43,45,47,49,-1,-1,51,53,-1,-1,-1,-1,-1,-1,-1,-1,-1,-1,-1,-1,-1,-1,-1,-1,-1,-1],"loss_changes":[2.5213286E10,8.362803E8,2.0290396E9,9.463808E7,6.3142144E7,2.0682886E8,6.010696E8,0E0,1.171456E6,0E0,1.26E6,1.2022352E7,6.984744E6,1.0976435E8,9.364326E7,0E0,0E0,0E0,0E0,3.80776E5,2.3001E6,2.301172E6,1.612E3,1.8488704E7,9.521152E6,4.576E6,7.95264E6,0E0,0E0,4.2204E4,3.31889E5,5.2656426E4,1.00778E5,0E0,0E0,4.85088E5,9.20384E5,0E0,0E0,0E0,0E0,0E0,0E0,0E0,0E0,0E0,0E0,0E0,0E0,0E0,0E0,0E0,0E0,0E0,0E0],"parents":[2147483647,0,0,1,1,2,2,3,3,4,4,5,5,6,6,8,8,10,10,11,11,12,12,13,13,14,14,19,19,20,20,21,21,22,22,23,23,24,24,25,25,26,26,29,29,30,30,31,31,32,32,35,35,36,36],"right_children":[2,4,6,8,10,12,14,-1,16,-1,18,20,22,24,26,-1,-1,-1,-1,28,30,32,34,36,38,40,42,-1,-1,44,46,48,50,-1,-1,52,54,-1,-1,-1,-1,-1,-1,-1,-1,-1,-1,-1,-1,-1,-1,-1,-1,-1,-1],"split_conditions":[5.4198785E4,5.098289E4,5.7079453E4,4.965972E4,5.2549316E4,5.5689348E4,5.8879164E4,-5.420433E2,5.0492867E4,-3.2412546E2,5.331249E4,5.4853938E4,5.6746203E4,5.8132246E4,5.9609477E4,-4.740793E2,-4.1705792E2,-2.2998497E2,-1.8210005E2,5.451485E4,5.5161293E4,5.627125E4,5.6827418E4,5.7663434E4,5.8325527E4,5.9181574E4,6.0274438E4,-1.2161861E2,-9.719147E1,5.5095598E4,5.5472965E4,5.61658E4,5.6415992E4,6.719783E1,8.644178E1,5.734475E4,5.785891E4,1.8709529E2,2.1747452E2,2.4668042E2,2.794312E2,3.215541E2,3.7878015E2,-7.8037544E1,-6.2478127E1,-4.9159832E1,-2.6114286E1,-5.7448864E0,1.2057813E1,2.939961E1,4.8730095E1,1.0775382E2,1.2766595E2,1.4900223E2,1.6789726E2],"split_indices":[1,1,0,0,0,0,1,0,1,0,0,1,1,1,0,0,0,0,0,0,0,1,0,1,0,1,1,0,0,1,1,0,1,0,0,0,0,0,0,0,0,0,0,0,0,0,0,0,0,0,0,0,0,0,0],"split_type":[0,0,0,0,0,0,0,0,0,0,0,0,0,0,0,0,0,0,0,0,0,0,0,0,0,0,0,0,0,0,0,0,0,0,0,0,0,0,0,0,0,0,0,0,0,0,0,0,0,0,0,0,0,0,0],"sum_hessian":[3.199E3,8.85E2,2.314E3,6.74E2,2.11E2,4E2,1.914E3,3.62E2,3.12E2,1.16E2,9.5E1,2.44E2,1.56E2,1.221E3,6.93E2,2.14E2,9.8E1,4.8E1,4.7E1,1.04E2,1.4E2,6.9E1,8.7E1,5.73E2,6.48E2,4.43E2,2.5E2,5E1,5.4E1,9.7E1,4.3E1,1.1E1,5.8E1,2.4E1,6.3E1,1.89E2,3.84E2,2.32E2,4.16E2,1.87E2,2.56E2,1.49E2,1.01E2,6E1,3.7E1,3E1,1.3E1,1E1,1E0,9E0,4.9E1,9E1,9.9E1,1.88E2,1.96E2],"tree_param":{"num_deleted":"0","num_feature":"9","num_nodes":"55","size_leaf_vector":"1"}},{"base_weights":[-1.6717035E1,-4.0590193E3,1.5861204E3,-4.522439E3,-2.3366208E3,-3.3863803E2,1.9574425E3,-4.9045718E2,-4.1436113E3,-2.8259576E2,-1.8434912E3,-7.762809E2,5.016834E2,1.5279045E3,2.5814207E3,-4.347053E2,-3.8181488E2,-2.008298E2,-1.5460736E2,-9.93597E2,-6.005822E2,1.791836E2,6.211276E2,1.2239775E3,1.7409592E3,2.3243762E3,3.1298071E3,-1.07717545E2,-8.575309E1,-6.4847437E2,-3.0287482E2,-1.6756697E1,2.9066101E1,4.735833E1,6.838696E1,1.01144415E3,1.3472333E2,1.5895268E2,1.8642342E2,2.1665315E2,2.507838E2,2.9256583E2,3.4716248E2,-7.1066124E1,-5.5587837E1,-9.705859E0,-3.1943134E1,-1.5321192E1,3.4386718E0,9.00545E1,1.0834529E2],"categories":[],"categories_nodes":[],"categories_segments":[],"categories_sizes":[],"default_left":[0,0,0,0,0,0,0,0,0,0,0,0,0,0,0,0,0,0,0,0,0,0,0,0,0,0,0,0,0,0,0,0,0,0,0,0,0,0,0,0,0,0,0,0,0,0,0,0,0,0,0],"id":3,"left_children":[1,3,5,7,9,11,13,-1,15,-1,17,19,21,23,25,-1,-1,-1,-1,27,29,31,33,35,37,39,41,-1,-1,43,45,47,-1,-1,-1,49,-1,-1,-1,-1,-1,-1,-1,-1,-1,-1,-1,-1,-1,-1,-1],"loss_changes":[2.0765645E10,7.157883E8,1.6409119E9,8.332698E7,4.1845184E7,1.3719643E8,5.117307E8,0E0,7.635968E6,0E0,1.796672E6,8.757888E6,4.819356E6,7.181722E7,1.0309683E8,0E0,0E0,0E0,0E0,3.0448E5,1.771176E6,7.912155E5,5.37052E5,1.1054208E7,9.525504E6,1.0117376E7,7.079168E6,0E0,0E0,2.84432E5,4.0556E4,1.0297145E5,0E0,0E0,0E0,4.45776E5,0E0,0E0,0E0,0E0,0E0,0E0,0E0,0E0,0E0,0E0,0E0,0E0,0E0,0E0,0E0],"parents":[2147483647,0,0,1,1,2,2,3,3,4,4,5,5,6,6,8,8,10,10,11,11,12,12,13,13,14,14,19,19,20,20,21,21,22,22,23,23,24,24,25,25,26,26,29,29,30,30,31,31,35,35],"right_children":[2,4,6,8,10,12,14,-1,16,-1,18,20,22,24,26,-1,-1,-1,-1,28,30,32,34,36,38,40,42,-1,-1,44,46,48,-1,-1,-1,50,-1,-1,-1,-1,-1,-1,-1,-1,-1,-1,-1,-1,-1,-1,-1],"split_conditions":[5.41425E4,5.1188395E4,5.697015E4,4.9544504E4,5.2542734E4,5.5472957E4,5.865929E4,-4.9045718E2,5.024952E4,-2.8259576E2,5.351818E4,5.4853938E4,5.6412664E4,5.790253E4,5.9606203E4,-4.347053E2,-3.8181488E2,-2.008298E2,-1.5460736E2,5.456732E4,5.5259062E4,5.627125E4,5.6746203E4,5.7493074E4,5.8243402E4,5.9070805E4,6.037179E4,-1.07717545E2,-8.575309E1,5.5016375E4,-1.0333701E2,1.5183975E2,2.9066101E1,4.735833E1,6.838696E1,5.726802E4,1.3472333E2,1.5895268E2,1.8642342E2,2.1665315E2,2.507838E2,2.9256583E2,3.4716248E2,-7.1066124E1,-5.5587837E1,-9.705859E0,-3.1943134E1,-1.5321192E1,3.4386718E0,9.00545E1,1.0834529E2],"split_indices":[2,1,2,2,2,7,2,0,2,0,1,1,2,2,2,0,0,0,0,2,2,1,1,2,2,2,1,0,0,2,5,8,0,0,0,2,0,0,0,0,0,0,0,0,0,0,0,0,0,0,0],"split_type":[0,0,0,0,0,0,0,0,0,0,0,0,0,0,0,0,0,0,0,0,0,0,0,0,0,0,0,0,0,0,0,0,0,0,0,0,0,0,0,0,0,0,0,0,0,0,0,0,0,0,0],"sum_hessian":[3.203E3,9.09E2,2.294E3,7.15E2,1.94E2,3.71E2,1.923E3,3.5E2,3.65E2,9.5E1,9.9E1,2.44E2,1.27E2,1.141E3,7.82E2,2.17E2,1.48E2,6E1,3.9E1,1.07E2,1.37E2,3.5E1,9.2E1,4.73E2,6.68E2,5.36E2,2.46E2,6.2E1,4.5E1,1.17E2,2E1,1.3E1,2.2E1,3E1,6.2E1,1.77E2,2.96E2,3.06E2,3.62E2,2.95E2,2.41E2,1.6E2,8.6E1,6.6E1,5.1E1,2E0,1.8E1,3E0,1E1,7.5E1,1.02E2],"tree_param":{"num_deleted":"0","num_feature":"9","num_nodes":"51","size_leaf_vector":"1"}},{"base_weights":[2.4178593E1,-3.625648E3,1.4524299E3,-4.0485054E3,-2.0303593E3,-1.6447687E2,1.8065092E3,-4.3490815E3,-3.603828E3,-2.3926738E3,-1.4977393E3,-6.782875E2,5.234524E2,1.4427717E3,2.4014097E3,-4.53832E2,-4.105236E2,-3.7614334E2,-3.2765805E2,-2.5743066E2,-2.086707E2,-1.6199005E2,-1.14520035E2,-8.1602856E2,-4.7318774E2,2.2020656E2,6.337262E2,1.1655249E3,1.640491E3,2.1893096E3,2.930272E3,-9.200581E1,-7.202091E1,-5.295761E1,-2.7725797E2,-9.889788E0,3.0357162E2,4.881885E1,6.976397E1,9.9313E2,1.2676318E2,1.508845E2,1.7739256E2,2.0551286E2,2.3870496E2,2.740754E2,3.1638718E2,-2.9716074E1,-1.4219531E1,-1.1592448E1,1.7443033E0,2.1272015E1,3.4567375E1,8.618064E1,1.03700516E2],"categories":[],"categories_nodes":[],"categories_segments":[],"categories_sizes":[],"default_left":[0,0,0,0,0,0,0,0,0,0,0,0,0,0,0,0,0,0,0,0,0,0,0,0,0,0,0,0,0,0,0,0,0,0,0,0,0,0,0,0,0,0,0,0,0,0,0,0,0,0,0,0,0,0,0],"id":4,"left_children":[1,3,5,7,9,11,13,15,17,19,21,23,25,27,29,-1,-1,-1,-1,-1,-1,-1,-1,31,33,35,37,39,41,43,45,-1,-1,-1,47,49,51,-1,-1,53,-1,-1,-1,-1,-1,-1,-1,-1,-1,-1,-1,-1,-1,-1,-1],"loss_changes":[1.6717726E10,6.002514E8,1.3199401E9,7.94921E7,3.3274752E7,1.4704317E8,4.0572416E8,7.49568E5,2.787072E6,8.5248E5,1.590224E6,6.33752E6,5.812784E6,6.2552576E7,7.389978E7,0E0,0E0,0E0,0E0,0E0,0E0,0E0,0E0,7.42872E5,9.35892E5,9.4292E5,8.68656E5,7.4192E6,9.338624E6,8.758528E6,2.7136E5,0E0,0E0,0E0,2.2260125E4,4.2597258E4,6.416975E4,0E0,0E0,1.89552E5,0E0,0E0,0E0,0E0,0E0,0E0,0E0,0E0,0E0,0E0,0E0,0E0,0E0,0E0,0E0],"parents":[2147483647,0,0,1,1,2,2,3,3,4,4,5,5,6,6,7,7,8,8,9,9,10,10,11,11,12,12,13,13,14,14,23,23,24,24,25,25,26,26,27,27,28,28,29,29,30,30,34,34,35,35,36,36,39,39],"right_children":[2,4,6,8,10,12,14,16,18,20,22,24,26,28,30,-1,-1,-1,-1,-1,-1,-1,-1,32,34,36,38,40,42,44,46,-1,-1,-1,48,50,52,-1,-1,54,-1,-1,-1,-1,-1,-1,-1,-1,-1,-1,-1,-1,-1,-1,-1],"split_conditions":[5.4354066E4,5.15363E4,5.7116203E4,4.992096E4,5.312051E4,5.558491E4,5.877699E4,4.9290344E4,5.049604E4,5.2282645E4,5.3671582E4,5.4978594E4,5.6497977E4,5.798478E4,5.9890812E4,-4.53832E2,-4.105236E2,-3.7614334E2,-3.2765805E2,-2.5743066E2,-2.086707E2,-1.6199005E2,-1.14520035E2,5.4635043E4,5.5319027E4,5.627125E4,5.6832742E4,5.7595633E4,5.8376285E4,5.9294625E4,6.043313E4,-9.200581E1,-7.202091E1,-5.295761E1,8.723E3,1.5183975E2,5.6302418E4,4.881885E1,6.976397E1,5.7288438E4,1.2676318E2,1.508845E2,1.7739256E2,2.0551286E2,2.3870496E2,2.740754E2,3.1638718E2,-2.9716074E1,-1.4219531E1,-1.1592448E1,1.7443033E0,2.1272015E1,3.4567375E1,8.618064E1,1.03700516E2],"split_indices":[1,1,2,1,1,6,2,2,2,1,2,1,2,2,1,0,0,0,0,0,0,0,0,2,1,1,1,2,2,2,2,0,0,0,3,8,2,0,0,2,0,0,0,0,0,0,0,0,0,0,0,0,0,0,0],"split_type":[0,0,0,0,0,0,0,0,0,0,0,0,0,0,0,0,0,0,0,0,0,0,0,0,0,0,0,0,0,0,0,0,0,0,0,0,0,0,0,0,0,0,0,0,0,0,0,0,0,0,0,0,0,0,0],"sum_hessian":[3.205E3,9.01E2,2.304E3,7.11E2,1.9E2,4.14E2,1.89E3,4.19E2,2.92E2,1.11E2,7.9E1,2.37E2,1.77E2,1.175E3,7.15E2,2.26E2,1.93E2,1.9E2,1.02E2,6.5E1,4.6E1,5.6E1,2.3E1,1.4E2,9.7E1,4.8E1,1.29E2,4.92E2,6.83E2,5.14E2,2.01E2,6.3E1,7.7E1,7.4E1,2.3E1,1.3E1,3.5E1,4.2E1,8.7E1,1.87E2,3.05E2,3.5E2,3.33E2,3.13E2,2.01E2,1.18E2,8.3E1,1.9E1,4E0,2E0,1.1E1,1.3E1,2.2E1,5.2E1,1.35E2],"tree_param":{"num_deleted":"0","num_feature":"9","num_nodes":"55","size_leaf_vector":"1"}},{"base_weights":[-2.3668276E1,-3.295971E3,1.2835543E3,-3.6977712E3,-2.0196163E3,-2.6525464E2,1.595398E3,-4.0112863E2,-3.4130842E3,-2.4091157E3,-1.5113583E3,-6.226828E2,3.889227E2,1.230523E3,2.0875652E3,-3.551421E2,-3.1527783E2,-2.649367E2,-2.1344383E2,-1.6482716E2,-1.2584589E2,-8.066979E2,-4.7470868E2,1.5212444E2,4.8847067E2,1.0094593E3,1.4120865E3,1.8452933E3,2.4850366E3,-8.993383E1,-7.145087E1,-5.4921516E1,-3.324578E2,-3.225677E1,2.4546707E1,3.8713312E2,5.510151E1,8.248647E2,1.1037441E3,1.2882445E2,1.4934679E2,1.7290935E2,1.9776505E2,2.2637651E2,2.739853E2,-3.7427982E1,-1.9519392E1,4.226953E-1,-8.768685E0,3.9479E1,1.6110157E1,7.395162E1,8.826363E1,1.0294197E2,1.16208435E2],"categories":[],"categories_nodes":[],"categories_segments":[],"categories_sizes":[],"default_left":[0,0,0,0,0,0,0,0,0,0,0,0,0,0,0,0,0,0,0,0,0,0,0,0,0,0,0,0,0,0,0,0,0,0,0,0,0,0,0,0,0,0,0,0,0,0,0,0,0,0,0,0,0,0,0],"id":5,"left_children":[1,3,5,7,9,11,13,-1,15,17,19,21,23,25,27,-1,-1,-1,-1,-1,-1,29,31,33,35,37,39,41,43,-1,-1,-1,45,47,-1,49,-1,51,53,-1,-1,-1,-1,-1,-1,-1,-1,-1,-1,-1,-1,-1,-1,-1,-1],"loss_changes":[1.3756805E10,4.63318E8,1.1103255E9,4.851917E7,4.030739E7,9.049723E7,3.409664E8,0E0,2.19904E6,2.528064E6,1.353632E6,6.424424E6,3.155164E6,4.276544E7,7.370342E7,0E0,0E0,0E0,0E0,0E0,0E0,2.96864E5,1.311812E6,7.307644E5,3.95142E5,7.791808E6,4.143232E6,4.408704E6,1.0994688E7,0E0,0E0,0E0,2.19716E5,3.0705086E4,0E0,5.6265E3,0E0,2.00296E5,2.25952E5,0E0,0E0,0E0,0E0,0E0,0E0,0E0,0E0,0E0,0E0,0E0,0E0,0E0,0E0,0E0,0E0],"parents":[2147483647,0,0,1,1,2,2,3,3,4,4,5,5,6,6,8,8,9,9,10,10,11,11,12,12,13,13,14,14,21,21,22,22,23,23,24,24,25,25,26,26,27,27,28,28,32,32,33,33,35,35,37,37,38,38],"right_children":[2,4,6,8,10,12,14,-1,16,18,20,22,24,26,28,-1,-1,-1,-1,-1,-1,30,32,34,36,38,40,42,44,-1,-1,-1,46,48,-1,50,-1,52,54,-1,-1,-1,-1,-1,-1,-1,-1,-1,-1,-1,-1,-1,-1,-1,-1],"split_conditions":[5.4104426E4,5.089259E4,5.697015E4,4.946398E4,5.2549316E4,5.5689348E4,5.862476E4,-4.0112863E2,5.0285098E4,5.190756E4,5.3438336E4,5.4853938E4,5.6412664E4,5.801846E4,5.946166E4,-3.551421E2,-3.1527783E2,-2.649367E2,-2.1344383E2,-1.6482716E2,-1.2584589E2,5.451485E4,5.5110688E4,5.618215E4,5.665949E4,5.7500332E4,5.829348E4,5.900964E4,6.0014684E4,-8.993383E1,-7.145087E1,-5.4921516E1,5.5472965E4,6.169E3,2.4546707E1,3.0946283E2,5.510151E1,5.724048E4,5.7754184E4,1.2882445E2,1.4934679E2,1.7290935E2,1.9776505E2,2.2637651E2,2.739853E2,-3.7427982E1,-1.9519392E1,4.226953E-1,-8.768685E0,3.9479E1,1.6110157E1,7.395162E1,8.826363E1,1.0294197E2,1.16208435E2],"split_indices":[0,1,2,2,0,0,0,0,1,0,2,1,2,1,0,0,0,0,0,0,0,0,0,2,0,0,1,2,2,0,0,0,1,3,0,4,0,0,0,0,0,0,0,0,0,0,0,0,0,0,0,0,0,0,0],"split_type":[0,0,0,0,0,0,0,0,0,0,0,0,0,0,0,0,0,0,0,0,0,0,0,0,0,0,0,0,0,0,0,0,0,0,0,0,0,0,0,0,0,0,0,0,0,0,0,0,0,0,0,0,0,0,0],"sum_hessian":[3.214E3,9.17E2,2.297E3,6.96E2,2.21E2,3.85E2,1.912E3,3.25E2,3.71E2,1.23E2,9.8E1,2.49E2,1.36E2,1.1E3,8.12E2,2.34E2,1.37E2,6.1E1,6.2E1,6E1,3.8E1,1.09E2,1.4E2,4.1E1,9.5E1,4.99E2,6.01E2,5.08E2,3.04E2,5E1,5.9E1,9E1,5E1,1.4E1,2.7E1,3.9E1,5.6E1,1.72E2,3.27E2,2.45E2,3.56E2,2.78E2,2.3E2,1.68E2,1.36E2,3.7E1,1.3E1,9E0,5E0,3.7E1,2E0,7.5E1,9.7E1,1.52E2,1.75E2],"tree_param":{"num_deleted":"0","num_feature":"9","num_nodes":"55","size_leaf_vector":"1"}},{"base_weights":[8.744933E0,-2.8989783E3,1.182595E3,-3.2807197E3,-1.5919364E3,-1.3482596E2,1.451043E3,-3.5002727E3,-2.872036E2,-1.9521648E3,-1.1558771E3,-5.2491473E2,4.111666E2,1.1873379E3,1.9858834E3,-3.7130493E2,-3.321068E2,-2.0955106E2,-1.7143945E2,-1.2887943E2,-9.251595E1,-6.2967755E2,-3.6077408E2,1.9770973E2,5.0833557E2,9.8600385E2,1.400549E3,1.8221239E3,2.4130858E2,-6.9039024E1,-5.505885E1,-3.9071844E2,-1.5335606E2,-2.6362572E1,2.5168796E2,3.918011E1,5.531906E1,8.182535E2,1.078757E3,1.3091307E2,1.5122491E2,1.7091136E2,1.9655103E2,-3.047497E1,-4.2328327E1,-3.6287763E0,-1.7134233E1,-6.5450525E0,9.968881E0,1.8098803E1,2.8057407E1,7.301668E1,8.9263756E1,9.9640175E1,1.118849E2],"categories":[],"categories_nodes":[],"categories_segments":[],"categories_sizes":[],"default_left":[0,0,0,0,0,0,0,0,0,0,0,0,0,0,0,0,0,0,0,0,0,0,0,0,0,0,0,0,0,0,0,0,0,0,0,0,0,0,0,0,0,0,0,0,0,0,0,0,0,0,0,0,0,0,0],"id":6,"left_children":[1,3,5,7,9,11,13,15,-1,17,19,21,23,25,27,-1,-1,-1,-1,-1,-1,29,31,33,35,37,39,41,-1,-1,-1,43,45,47,49,-1,-1,51,53,-1,-1,-1,-1,-1,-1,-1,-1,-1,-1,-1,-1,-1,-1,-1,-1],"loss_changes":[1.0871157E10,4.5181696E8,8.026478E8,5.347379E7,3.057344E7,8.221527E7,2.6350285E8,5.056512E6,0E0,2.58912E5,1.782296E6,3.641896E6,3.238864E6,5.292147E7,3.904717E7,0E0,0E0,0E0,0E0,0E0,0E0,2.72908E5,4.9907E5,6.3557625E5,3.58244E5,9.293184E6,4.269696E6,3.981312E6,0E0,0E0,0E0,8.9371E4,2.1155438E4,6.072267E4,3.4994E4,0E0,0E0,9.01104E5,2.65312E5,0E0,0E0,0E0,0E0,0E0,0E0,0E0,0E0,0E0,0E0,0E0,0E0,0E0,0E0,0E0,0E0],"parents":[2147483647,0,0,1,1,2,2,3,3,4,4,5,5,6,6,7,7,9,9,10,10,11,11,12,12,13,13,14,14,21,21,22,22,23,23,24,24,25,25,26,26,27,27,31,31,32,32,33,33,34,34,37,37,38,38],"right_children":[2,4,6,8,10,12,14,16,-1,18,20,22,24,26,28,-1,-1,-1,-1,-1,-1,30,32,34,36,38,40,42,-1,-1,-1,44,46,48,50,-1,-1,52,54,-1,-1,-1,-1,-1,-1,-1,-1,-1,-1,-1,-1,-1,-1,-1,-1],"split_conditions":[5.4430887E4,5.139378E4,5.7157246E4,5.002328E4,5.304822E4,5.574386E4,5.8885434E4,4.923327E4,-2.872036E2,5.2178734E4,5.371093E4,5.4949684E4,5.6497977E4,5.814537E4,5.9863633E4,-3.7130493E2,-3.321068E2,-2.0955106E2,-1.7143945E2,-1.2887943E2,-9.251595E1,5.474363E4,5.5472965E4,5.627125E4,5.6832742E4,5.7690715E4,5.854079E4,5.934326E4,2.4130858E2,-6.9039024E1,-5.505885E1,1.00348465E2,1.523E3,5.61658E4,5.6302418E4,3.918011E1,5.531906E1,5.7519863E4,5.7846684E4,1.3091307E2,1.5122491E2,1.7091136E2,1.9655103E2,-3.047497E1,-4.2328327E1,-3.6287763E0,-1.7134233E1,-6.5450525E0,9.968881E0,1.8098803E1,2.8057407E1,7.301668E1,8.9263756E1,9.9640175E1,1.118849E2],"split_indices":[1,6,1,1,0,1,2,0,0,0,0,0,2,0,2,0,0,0,0,0,0,2,1,1,1,0,2,2,0,0,0,4,3,0,2,0,0,1,2,0,0,0,0,0,0,0,0,0,0,0,0,0,0,0,0],"split_type":[0,0,0,0,0,0,0,0,0,0,0,0,0,0,0,0,0,0,0,0,0,0,0,0,0,0,0,0,0,0,0,0,0,0,0,0,0,0,0,0,0,0,0,0,0,0,0,0,0,0,0,0,0,0,0],"sum_hessian":[3.183E3,9.15E2,2.268E3,7.07E2,2.08E2,3.84E2,1.884E3,4.55E2,2.52E2,1.12E2,9.6E1,2.24E2,1.6E2,1.264E3,6.2E2,1.99E2,2.56E2,6.5E1,4.7E1,5.8E1,3.8E1,1.35E2,8.9E1,5.1E1,1.09E2,6.53E2,6.11E2,4.52E2,1.68E2,7.2E1,6.3E1,7.7E1,1.2E1,1E1,4.1E1,3.3E1,7.6E1,2.36E2,4.17E2,3.43E2,2.68E2,2.6E2,1.92E2,2.4E1,5.3E1,2E0,1E1,8E0,2E0,1.4E1,2.7E1,1.13E2,1.23E2,1.45E2,2.72E2],"tree_param":{"num_deleted":"0","num_feature":"9","num_nodes":"55","size_leaf_vector":"1"}},{"base_weights":[7.863822E0,-2.6265527E3,1.0538788E3,-2.986034E3,-1.5507327E3,-1.1179555E2,1.3052133E3,-3.26738E2,-2.7646892E3,-1.8672994E3,-1.1500537E3,-4.9582678E2,3.7893933E2,1.0898824E3,1.8219061E3,-2.8867487E2,-2.5199951E2,-2.0628032E2,-1.6460759E2,-1.2423268E2,-8.374751E1,-5.863582E2,-3.2733273E2,2.2199333E2,4.9563638E2,8.9424854E2,1.2804539E3,1.6801854E3,2.2031583E2,-6.4675224E1,-4.9118023E1,-3.5454028E2,-1.5355829E2,-6.4083333E0,2.7128613E2,3.9388798E1,5.2660107E1,7.592391E2,9.8819305E1,1.1887057E2,1.3802678E2,1.5734737E2,1.8097032E2,-2.9621979E1,-3.9739178E1,-1.3486328E0,-1.6410711E1,-1.2011523E1,3.2027996E0,1.5403264E1,2.9763733E1,6.7563736E1,8.2507866E1],"categories":[],"categories_nodes":[],"categories_segments":[],"categories_sizes":[],"default_left":[0,0,0,0,0,0,0,0,0,0,0,0,0,0,0,0,0,0,0,0,0,0,0,0,0,0,0,0,0,0,0,0,0,0,0,0,0,0,0,0,0,0,0,0,0,0,0,0,0,0,0,0,0],"id":7,"left_children":[1,3,5,7,9,11,13,-1,15,17,19,21,23,25,27,-1,-1,-1,-1,-1,-1,29,31,33,35,37,39,41,-1,-1,-1,43,45,47,49,-1,-1,51,-1,-1,-1,-1,-1,-1,-1,-1,-1,-1,-1,-1,-1,-1,-1],"loss_changes":[8.900726E9,3.5039386E8,6.7750246E8,3.374899E7,2.7279744E7,7.764394E7,2.0963046E8,0E0,4.403712E6,2.140448E6,1.988048E6,3.33174E6,3.205012E6,4.899968E7,2.6447744E7,0E0,0E0,0E0,0E0,0E0,0E0,5.38812E5,3.37979E5,8.9116475E5,1.1709E5,7.709536E6,4.577408E6,2.833024E6,0E0,0E0,0E0,5.9723E4,1.6995469E4,6.940419E4,1.549895E5,0E0,0E0,9.72736E5,0E0,0E0,0E0,0E0,0E0,0E0,0E0,0E0,0E0,0E0,0E0,0E0,0E0,0E0,0E0],"parents":[2147483647,0,0,1,1,2,2,3,3,4,4,5,5,6,6,8,8,9,9,10,10,11,11,12,12,13,13,14,14,21,21,22,22,23,23,24,24,25,25,26,26,27,27,31,31,32,32,33,33,34,34,37,37],"right_children":[2,4,6,8,10,12,14,-1,16,18,20,22,24,26,28,-1,-1,-1,-1,-1,-1,30,32,34,36,38,40,42,-1,-1,-1,44,46,48,50,-1,-1,52,-1,-1,-1,-1,-1,-1,-1,-1,-1,-1,-1,-1,-1,-1,-1],"split_conditions":[5.4280004E4,5.0885812E4,5.7112344E4,4.9449133E4,5.2819926E4,5.5472957E4,5.896863E4,-3.26738E2,5.024805E4,5.202135E4,5.371093E4,5.4961137E4,5.6679664E4,5.8158758E4,5.9971164E4,-2.8867487E2,-2.5199951E2,-2.0628032E2,-1.6460759E2,-1.2423268E2,-8.374751E1,5.4745184E4,5.5404773E4,5.618215E4,5.6819926E4,5.7735152E4,5.8572867E4,5.9418527E4,2.2031583E2,-6.4675224E1,-4.9118023E1,1.4458286E2,2.2057163E1,1.5183975E2,5.6302418E4,3.9388798E1,5.2660107E1,5.746149E4,9.8819305E1,1.1887057E2,1.3802678E2,1.5734737E2,1.8097032E2,-2.9621979E1,-3.9739178E1,-1.3486328E0,-1.6410711E1,-1.2011523E1,3.2027996E0,1.5403264E1,2.9763733E1,6.7563736E1,8.2507866E1],"split_indices":[0,2,0,0,0,7,0,0,0,2,0,2,2,2,0,0,0,0,0,0,0,0,2,2,2,2,2,0,0,0,0,4,4,8,2,0,0,2,0,0,0,0,0,0,0,0,0,0,0,0,0,0,0],"split_type":[0,0,0,0,0,0,0,0,0,0,0,0,0,0,0,0,0,0,0,0,0,0,0,0,0,0,0,0,0,0,0,0,0,0,0,0,0,0,0,0,0,0,0,0,0,0,0,0,0,0,0,0,0],"sum_hessian":[3.228E3,9.17E2,2.311E3,6.86E2,2.31E2,4.1E2,1.901E3,2.96E2,3.9E2,1.27E2,1.04E2,2.3E2,1.8E2,1.344E3,5.57E2,2.53E2,1.37E2,6.3E1,6.4E1,7.8E1,2.6E1,1.48E2,8.2E1,7.8E1,1.02E2,6.66E2,6.78E2,4.1E2,1.47E2,8.7E1,6.1E1,7E1,1.2E1,1.4E1,6.4E1,2.7E1,7.5E1,2.77E2,3.89E2,3.6E2,3.18E2,2.32E2,1.78E2,3.3E1,3.7E1,1E0,1.1E1,3E0,1.1E1,1.3E1,5.1E1,1.27E2,1.5E2],"tree_param":{"num_deleted":"0","num_feature":"9","num_nodes":"53","size_leaf_vector":"1"}},{"base_weights":[6.842432E0,-2.3820376E3,9.4260443E2,-2.6912402E3,-1.458861E3,-8.118811E1,1.1791583E3,-2.942808E2,-2.4926597E3,-1.8007794E3,-1.1012837E3,-4.4531656E2,3.5471017E2,9.6748E2,1.6108826E3,-2.5990735E2,-2.2978682E2,-1.9781815E2,-1.6311536E2,-1.2882225E2,-8.953573E2,-5.138338E2,-2.5897107E2,1.7364743E2,4.4124323E2,8.0551495E2,1.1323025E3,1.4793389E3,1.9488367E3,-9.481924E1,-6.806838E1,-6.226261E1,-4.6707657E1,-2.8059506E2,-1.5861076E1,-3.0273996E1,2.242371E2,3.421541E1,4.8276054E1,6.966224E2,8.8834656E2,1.050729E2,1.2241064E2,1.3718413E2,1.5811922E2,1.8247824E2,2.2025163E2,-2.863332E1,-1.3871973E1,-5.702995E0,8.684115E0,2.6000158E1,1.6202345E1,6.2296673E1,7.443398E1,9.161075E1,8.1388504E1],"categories":[],"categories_nodes":[],"categories_segments":[],"categories_sizes":[],"default_left":[0,0,0,0,0,0,0,0,0,0,0,0,0,0,0,0,0,0,0,0,0,0,0,0,0,0,0,0,0,0,0,0,0,0,0,0,0,0,0,0,0,0,0,0,0,0,0,0,0,0,0,0,0,0,0,0,0],"id":8,"left_children":[1,3,5,7,9,11,13,-1,15,17,19,21,23,25,27,-1,-1,-1,-1,-1,29,31,33,35,37,39,41,43,45,-1,-1,-1,-1,47,-1,49,51,-1,-1,53,55,-1,-1,-1,-1,-1,-1,-1,-1,-1,-1,-1,-1,-1,-1,-1,-1],"loss_changes":[7.211485E9,2.5526118E8,5.614739E8,2.6585088E7,2.6137184E7,6.936117E7,1.7052237E8,0E0,2.0288E6,2.63936E5,3.273584E6,2.905688E6,3.041294E6,3.288448E7,2.459072E7,0E0,0E0,0E0,0E0,0E0,1.2432E4,5.89208E5,9.87275E4,6.876654E5,3.86084E5,5.17184E6,3.39424E6,2.746944E6,1.330752E6,0E0,0E0,0E0,0E0,3.42725E3,0E0,4.8821926E4,7.5801E4,0E0,0E0,5.2744E5,6.08E2,0E0,0E0,0E0,0E0,0E0,0E0,0E0,0E0,0E0,0E0,0E0,0E0,0E0,0E0,0E0,0E0],"parents":[2147483647,0,0,1,1,2,2,3,3,4,4,5,5,6,6,8,8,9,9,10,10,11,11,12,12,13,13,14,14,20,20,21,21,22,22,23,23,24,24,25,25,26,26,27,27,28,28,33,33,35,35,36,36,39,39,40,40],"right_children":[2,4,6,8,10,12,14,-1,16,18,20,22,24,26,28,-1,-1,-1,-1,-1,30,32,34,36,38,40,42,44,46,-1,-1,-1,-1,48,-1,50,52,-1,-1,54,56,-1,-1,-1,-1,-1,-1,-1,-1,-1,-1,-1,-1,-1,-1,-1,-1],"split_conditions":[5.4280004E4,5.0780145E4,5.7255793E4,4.9508332E4,5.226349E4,5.5472957E4,5.8964496E4,-2.942808E2,5.0285098E4,5.1757344E4,5.338376E4,5.5050965E4,5.6580867E4,5.8127574E4,5.9941258E4,-2.5990735E2,-2.2978682E2,-1.9781815E2,-1.6311536E2,-1.2882225E2,5.4104426E4,5.4663125E4,5.5472965E4,5.627125E4,5.6819926E4,5.7750227E4,5.852778E4,5.9303E4,6.060755E4,-9.481924E1,-6.806838E1,-6.226261E1,-4.6707657E1,5.5404773E4,-1.5861076E1,5.61658E4,1.7966403E2,3.421541E1,4.8276054E1,5.7462938E4,2.0163522E2,1.050729E2,1.2241064E2,1.3718413E2,1.5811922E2,1.8247824E2,2.2025163E2,-2.863332E1,-1.3871973E1,-5.702995E0,8.684115E0,2.6000158E1,1.6202345E1,6.2296673E1,7.443398E1,9.161075E1,8.1388504E1],"split_indices":[0,0,1,1,2,7,1,0,1,0,1,0,2,0,1,0,0,0,0,0,0,1,1,1,2,2,0,0,2,0,0,0,0,2,0,0,4,0,0,0,4,0,0,0,0,0,0,0,0,0,0,0,0,0,0,0,0],"split_type":[0,0,0,0,0,0,0,0,0,0,0,0,0,0,0,0,0,0,0,0,0,0,0,0,0,0,0,0,0,0,0,0,0,0,0,0,0,0,0,0,0,0,0,0,0,0,0,0,0,0,0,0,0,0,0,0,0],"sum_hessian":[3.224E3,9.07E2,2.317E3,6.78E2,2.29E2,4.35E2,1.882E3,2.93E2,3.85E2,1.15E2,1.14E2,2.37E2,1.98E2,1.265E3,6.17E2,2.41E2,1.44E2,5.1E1,6.4E1,5.7E1,5.7E1,1.72E2,6.5E1,6.5E1,1.33E2,6.41E2,6.24E2,4.48E2,1.69E2,4.3E1,1.4E1,4.8E1,1.24E2,5.2E1,1.3E1,1.3E1,5.2E1,4.2E1,9.1E1,2.81E2,3.6E2,3.37E2,2.87E2,2.25E2,2.23E2,1.19E2,5E1,4.9E1,3E0,1.1E1,2E0,3.1E1,2.1E1,1.16E2,1.65E2,2.54E2,1.06E2],"tree_param":{"num_deleted":"0","num_feature":"9","num_nodes":"57","size_leaf_vector":"1"}},{"base_weights":[5.7608376E0,-2.1268445E3,8.6555865E2,-2.4175894E3,-1.1904667E3,-4.0753765E1,1.0693177E3,-2.5816372E3,-2.1463691E3,-1.465027E3,-8.5518805E2,-3.8317862E2,3.344052E2,8.361457E2,1.3839858E3,-2.803796E2,-2.4670422E2,-2.2368346E2,-1.9314088E2,-1.6084361E2,-1.28082E2,-9.5135574E1,-6.8474846E1,-4.5099554E2,-2.5728793E2,1.5682951E2,4.058317E2,6.852257E2,9.407947E2,1.2269888E3,1.6464636E3,-5.0842823E1,-3.9367573E1,-2.938245E1,-1.6661594E2,4.214323E0,2.0421614E2,3.2395794E1,4.49537E1,5.8897114E1,7.2803856E1,8.637946E1,1.0043042E2,1.1576068E2,1.3209659E2,1.545772E2,1.9171883E2,-1.5320313E0,-1.7228157E1,5.047227E0,-7.3584633E0,1.314681E1,2.2388557E1],"categories":[],"categories_nodes":[],"categories_segments":[],"categories_sizes":[],"default_left":[0,0,0,0,0,0,0,0,0,0,0,0,0,0,0,0,0,0,0,0,0,0,0,0,0,0,0,0,0,0,0,0,0,0,0,0,0,0,0,0,0,0,0,0,0,0,0,0,0,0,0,0,0],"id":9,"left_children":[1,3,5,7,9,11,13,15,17,19,21,23,25,27,29,-1,-1,-1,-1,-1,-1,-1,-1,31,33,35,37,39,41,43,45,-1,-1,-1,47,49,51,-1,-1,-1,-1,-1,-1,-1,-1,-1,-1,-1,-1,-1,-1,-1,-1],"loss_changes":[5.845554E9,2.4650035E8,4.196124E8,2.5515008E7,1.8906976E7,5.3825988E7,1.3494746E8,4.029952E6,9.10848E5,1.083504E6,1.004024E6,1.753682E6,2.473076E6,1.6222976E7,3.045184E7,0E0,0E0,0E0,0E0,0E0,0E0,0E0,0E0,2.64018E5,2.12759E5,4.258225E5,3.6249E5,1.388544E6,2.203584E6,1.711488E6,4.996288E6,0E0,0E0,0E0,1.879025E4,5.769628E4,3.495725E4,0E0,0E0,0E0,0E0,0E0,0E0,0E0,0E0,0E0,0E0,0E0,0E0,0E0,0E0,0E0,0E0],"parents":[2147483647,0,0,1,1,2,2,3,3,4,4,5,5,6,6,7,7,8,8,9,9,10,10,11,11,12,12,13,13,14,14,23,23,24,24,25,25,26,26,27,27,28,28,29,29,30,30,34,34,35,35,36,36],"right_children":[2,4,6,8,10,12,14,16,18,20,22,24,26,28,30,-1,-1,-1,-1,-1,-1,-1,-1,32,34,36,38,40,42,44,46,-1,-1,-1,48,50,52,-1,-1,-1,-1,-1,-1,-1,-1,-1,-1,-1,-1,-1,-1,-1,-1],"split_conditions":[5.4430887E4,5.1123168E4,5.7200734E4,4.981225E4,5.3092027E4,5.558491E4,5.8746312E4,4.9112492E4,5.0563375E4,5.2112793E4,5.3541348E4,5.5095598E4,5.6580867E4,5.793539E4,5.9504582E4,-2.803796E2,-2.4670422E2,-2.2368346E2,-1.9314088E2,-1.6084361E2,-1.28082E2,-9.5135574E1,-6.8474846E1,5.474363E4,5.5319027E4,5.627125E4,5.6884637E4,5.7554758E4,5.8268117E4,5.9090203E4,6.0430477E4,-5.0842823E1,-3.9367573E1,-2.938245E1,-1.16789894E2,6.169E3,5.6302418E4,3.2395794E1,4.49537E1,5.8897114E1,7.2803856E1,8.637946E1,1.0043042E2,1.1576068E2,1.3209659E2,1.545772E2,1.9171883E2,-1.5320313E0,-1.7228157E1,5.047227E0,-7.3584633E0,1.314681E1,2.2388557E1],"split_indices":[1,6,0,0,2,6,1,0,1,0,7,1,2,0,0,0,0,0,0,0,0,0,0,2,1,1,0,6,0,2,0,0,0,0,5,3,2,0,0,0,0,0,0,0,0,0,0,0,0,0,0,0,0],"split_type":[0,0,0,0,0,0,0,0,0,0,0,0,0,0,0,0,0,0,0,0,0,0,0,0,0,0,0,0,0,0,0,0,0,0,0,0,0,0,0,0,0,0,0,0,0,0,0,0,0,0,0,0,0],"sum_hessian":[3.186E3,9.15E2,2.271E3,6.97E2,2.18E2,4.17E2,1.854E3,4.29E2,2.68E2,1.18E2,1E2,2.18E2,1.99E2,1.067E3,7.87E2,1.38E2,2.91E2,1.82E2,8.6E1,6.2E1,5.6E1,6.1E1,3.9E1,1.4E2,7.8E1,5.8E1,1.41E2,4.4E2,6.27E2,4.96E2,2.91E2,6.6E1,7.4E1,5.4E1,2.4E1,1.4E1,4.4E1,5.2E1,8.9E1,1.4E2,3E2,2.9E2,3.37E2,2.93E2,2.03E2,2.17E2,7.4E1,1E0,2.3E1,9E0,5E0,1.1E1,3.3E1],"tree_param":{"num_deleted":"0","num_feature":"9","num_nodes":"53","size_leaf_vector":"1"}},{"base_weights":[-1.543282E1,-1.9624221E3,7.664697E2,-2.1835881E3,-1.1685768E3,-1.1555609E2,9.492469E2,-2.4175906E2,-2.0288484E3,-1.4215886E2,-9.398854E2,-3.733313E2,2.7184744E2,7.544327E2,1.2622885E3,-2.1217918E2,-1.8448882E2,-1.0493835E2,-7.8662476E1,-4.858507E2,-2.842312E2,1.5559087E2,3.3539523E2,6.0907996E2,8.633501E2,1.129711E3,1.4980571E3,-5.6063698E1,-4.384156E1,-3.291422E2,-1.8909097E2,-7.7374134E0,1.8241463E2,2.6882858E1,3.5399975E1,5.076623E2,6.585652E1,7.885525E1,9.2595505E1,1.0546386E2,1.1999142E2,1.4186256E2,1.803042E2,-3.3070618E1,-9.575586E0,-2.1385748E1,-1.1167668E1,3.0169923E0,-6.2664065E0,3.128125E0,1.8818027E1,4.559631E1,5.358612E1],"categories":[],"categories_nodes":[],"categories_segments":[],"categories_sizes":[],"default_left":[0,0,0,0,0,0,0,0,0,0,0,0,0,0,0,0,0,0,0,0,0,0,0,0,0,0,0,0,0,0,0,0,0,0,0,0,0,0,0,0,0,0,0,0,0,0,0,0,0,0,0,0,0],"id":10,"left_children":[1,3,5,7,9,11,13,-1,15,-1,17,19,21,23,25,-1,-1,-1,-1,27,29,31,33,35,37,39,41,-1,-1,43,45,47,49,-1,-1,51,-1,-1,-1,-1,-1,-1,-1,-1,-1,-1,-1,-1,-1,-1,-1,-1,-1],"loss_changes":[4.8243277E9,1.5686707E8,3.646149E8,2.0767744E7,1.0236192E7,3.894821E7,1.1327232E8,0E0,3.488896E6,0E0,9.8696E5,2.207872E6,1.10032E6,1.7791168E7,2.071936E7,0E0,0E0,0E0,0E0,1.16054E5,5.0605E5,2.5113275E5,2.8679E4,2.169984E6,2.355744E6,1.17472E6,3.619648E6,0E0,0E0,8.2E2,6.239475E4,2.0629676E4,3.6811125E4,0E0,0E0,5.88E2,0E0,0E0,0E0,0E0,0E0,0E0,0E0,0E0,0E0,0E0,0E0,0E0,0E0,0E0,0E0,0E0,0E0],"parents":[2147483647,0,0,1,1,2,2,3,3,4,4,5,5,6,6,8,8,10,10,11,11,12,12,13,13,14,14,19,19,20,20,21,21,22,22,23,23,24,24,25,25,26,26,29,29,30,30,31,31,32,32,35,35],"right_children":[2,4,6,8,10,12,14,-1,16,-1,18,20,22,24,26,-1,-1,-1,-1,28,30,32,34,36,38,40,42,-1,-1,44,46,48,50,-1,-1,52,-1,-1,-1,-1,-1,-1,-1,-1,-1,-1,-1,-1,-1,-1,-1,-1,-1],"split_conditions":[5.4119305E4,5.0854117E4,5.7079453E4,4.9361883E4,5.2366406E4,5.5689348E4,5.872714E4,-2.4175906E2,5.0197152E4,-1.4215886E2,5.331249E4,5.4853938E4,5.6643758E4,5.7961832E4,5.9581062E4,-2.1217918E2,-1.8448882E2,-1.0493835E2,-7.8662476E1,5.4523855E4,5.517153E4,5.6106305E4,5.6832742E4,5.7538273E4,5.8397867E4,5.9091926E4,6.060037E4,-5.6063698E1,-4.384156E1,9.786E3,5.5472965E4,6.003E3,9.188653E1,2.6882858E1,3.5399975E1,5.7362164E4,6.585652E1,7.885525E1,9.2595505E1,1.0546386E2,1.1999142E2,1.4186256E2,1.803042E2,-3.3070618E1,-9.575586E0,-2.1385748E1,-1.1167668E1,3.0169923E0,-6.2664065E0,3.128125E0,1.8818027E1,4.559631E1,5.358612E1],"split_indices":[6,6,0,0,1,0,0,0,0,0,0,1,1,0,0,0,0,0,0,1,1,6,1,0,1,0,0,0,0,3,1,3,8,0,0,1,0,0,0,0,0,0,0,0,0,0,0,0,0,0,0,0,0],"split_type":[0,0,0,0,0,0,0,0,0,0,0,0,0,0,0,0,0,0,0,0,0,0,0,0,0,0,0,0,0,0,0,0,0,0,0,0,0,0,0,0,0,0,0,0,0,0,0,0,0,0,0,0,0],"sum_hessian":[3.167E3,9.07E2,2.26E3,7.08E2,1.99E2,3.88E2,1.872E3,2.76E2,4.32E2,9.2E1,1.07E2,2.33E2,1.55E2,1.156E3,7.16E2,2.8E2,1.52E2,5.9E1,4.8E1,1.01E2,1.32E2,5.6E1,9.9E1,4.98E2,6.58E2,4.62E2,2.54E2,3.5E1,6.6E1,8.8E1,4.4E1,8E0,4.8E1,2.5E1,7.4E1,1.67E2,3.31E2,3.06E2,3.52E2,2.31E2,2.31E2,2.06E2,4.8E1,8.7E1,1E0,3.2E1,1.2E1,5E0,3E0,2E0,4.6E1,6.5E1,1.02E2],"tree_param":{"num_deleted":"0","num_feature":"9","num_nodes":"53","size_leaf_vector":"1"}},{"base_weights":[1.3211142E1,-1.709409E3,6.9515454E2,-1.938423E3,-9.1015717E2,-4.247093E1,8.68995E2,-2.0593572E3,-1.6646562E3,-1.13086235E2,-6.975226E2,-2.9270193E2,2.8917798E2,7.165334E2,1.2005465E3,-2.2905533E2,-1.9656187E2,-1.7448943E2,-1.4862643E2,-7.725915E1,-5.4874798E1,-3.7364676E2,-1.9356863E2,2.0098216E2,3.5848053E2,5.9371265E2,8.37455E2,1.0876188E3,1.4284149E3,-4.3835587E1,-3.4408246E2,-2.3342435E2,-6.281808E1,1.2806018E2,2.3094677E1,3.074256E1,3.843839E1,5.1038562E2,6.532687E2,7.698326E1,8.9979576E1,1.02108955E2,1.1580206E2,1.353014E2,1.6601035E2,-3.455582E1,-1.0046875E1,-2.5437803E1,-1.8513308E1,-1.081942E1,-1.6279167E0,4.655957E0,1.3630778E1,4.507504E1,5.3608826E1,6.0045055E1,6.760706E1],"categories":[],"categories_nodes":[],"categories_segments":[],"categories_sizes":[],"default_left":[0,0,0,0,0,0,0,0,0,0,0,0,0,0,0,0,0,0,0,0,0,0,0,0,0,0,0,0,0,0,0,0,0,0,0,0,0,0,0,0,0,0,0,0,0,0,0,0,0,0,0,0,0,0,0,0,0],"id":11,"left_children":[1,3,5,7,9,11,13,15,17,-1,19,21,23,25,27,-1,-1,-1,-1,-1,-1,29,31,33,35,37,39,41,43,-1,45,47,49,51,-1,-1,-1,53,55,-1,-1,-1,-1,-1,-1,-1,-1,-1,-1,-1,-1,-1,-1,-1,-1,-1,-1],"loss_changes":[3.740352E9,1.6352077E8,2.9252774E8,1.9780352E7,8.737888E6,3.626778E7,9.245299E7,5.943552E6,5.55648E5,0E0,7.59884E5,1.925732E6,1.077043E6,1.8319936E7,1.3371392E7,0E0,0E0,0E0,0E0,0E0,0E0,1.0935E5,5.794085E5,1.5615675E5,1.9369E4,2.80296E6,1.988416E6,6.536E5,1.055616E6,0E0,5.14E2,4.09395E4,5.7367836E4,1.1802531E4,0E0,0E0,0E0,1.69144E5,3.3648E4,0E0,0E0,0E0,0E0,0E0,0E0,0E0,0E0,0E0,0E0,0E0,0E0,0E0,0E0,0E0,0E0,0E0,0E0],"parents":[2147483647,0,0,1,1,2,2,3,3,4,4,5,5,6,6,7,7,8,8,10,10,11,11,12,12,13,13,14,14,21,21,22,22,23,23,24,24,25,25,26,26,27,27,28,28,30,30,31,31,32,32,33,33,37,37,38,38],"right_children":[2,4,6,8,10,12,14,16,18,-1,20,22,24,26,28,-1,-1,-1,-1,-1,-1,30,32,34,36,38,40,42,44,-1,46,48,50,52,-1,-1,-1,54,56,-1,-1,-1,-1,-1,-1,-1,-1,-1,-1,-1,-1,-1,-1,-1,-1,-1,-1],"split_conditions":[5.4430887E4,5.174876E4,5.729687E4,5.005623E4,5.3092027E4,5.627125E4,5.8942957E4,4.919265E4,5.0631066E4,-1.13086235E2,5.3765746E4,5.5044984E4,5.6819926E4,5.8249016E4,5.9890594E4,-2.2905533E2,-1.9656187E2,-1.7448943E2,-1.4862643E2,-7.725915E1,-5.4874798E1,5.456732E4,5.5472965E4,5.6500523E4,5.697015E4,5.782944E4,5.8595906E4,5.9427074E4,6.0765402E4,-4.3835587E1,5.5136207E4,5.515926E4,5.574386E4,9.188653E1,2.3094677E1,3.074256E1,3.843839E1,5.7519863E4,5.7967867E4,7.698326E1,8.9979576E1,1.02108955E2,1.1580206E2,1.353014E2,1.6601035E2,-3.455582E1,-1.0046875E1,-2.5437803E1,-1.8513308E1,-1.081942E1,-1.6279167E0,4.655957E0,1.3630778E1,4.507504E1,5.3608826E1,6.0045055E1,6.760706E1],"split_indices":[1,2,1,0,2,1,0,1,0,0,1,1,2,1,0,0,0,0,0,0,0,2,1,1,2,1,1,1,1,0,6,2,1,8,0,0,0,1,1,0,0,0,0,0,0,0,0,0,0,0,0,0,0,0,0,0,0],"split_type":[0,0,0,0,0,0,0,0,0,0,0,0,0,0,0,0,0,0,0,0,0,0,0,0,0,0,0,0,0,0,0,0,0,0,0,0,0,0,0,0,0,0,0,0,0,0,0,0,0,0,0,0,0,0,0,0,0],"sum_hessian":[3.182E3,9.02E2,2.28E3,7E2,2.02E2,4.35E2,1.845E3,4.81E2,2.19E2,9.7E1,1.05E2,2.48E2,1.87E2,1.266E3,5.79E2,1.32E2,3.49E2,1.45E2,7.4E1,6.7E1,3.8E1,1.35E2,1.13E2,8.4E1,1.03E2,6.31E2,6.35E2,3.91E2,1.88E2,3.8E1,9.7E1,8.6E1,2.7E1,2.6E1,5.8E1,3.9E1,6.4E1,2.67E2,3.64E2,3.11E2,3.24E2,2.09E2,1.82E2,1.47E2,4.1E1,9.6E1,1E0,5.7E1,2.9E1,1.3E1,1.4E1,3E0,2.3E1,8.6E1,1.81E2,1.18E2,2.46E2],"tree_param":{"num_deleted":"0","num_feature":"9","num_nodes":"57","size_leaf_vector":"1"}},{"base_weights":[-8.551889E-2,-1.5894336E3,6.2558234E2,-1.78669E3,-1.0111612E3,-7.4680626E1,7.745197E2,-1.9680746E2,-1.6668574E3,-1.26321815E2,-8.0872955E2,-2.9408432E2,2.2727579E2,6.3610126E2,1.0770406E3,-1.7298163E2,-1.5385623E2,-9.10916E1,-6.5378174E1,-3.5413925E2,-1.8785129E2,1.2396596E2,2.849019E2,5.2252905E2,7.4545935E2,9.8713214E2,1.3092698E3,-4.172699E1,-3.1386219E1,-2.2554703E1,-1.3567328E2,2.64027E0,1.4680779E2,1.6641016E2,2.9263975E1,4.421297E2,5.7477844E2,6.869393E1,8.031339E1,9.263796E1,1.0665978E2,1.2368319E2,1.4946497E2,-1.5618059E1,-8.789733E0,5.4351006E0,-7.0282817E0,8.073906E0,1.5848686E1,2.229883E0,1.8163671E1,3.80622E1,4.6525787E1,5.301075E1,5.9582336E1],"categories":[],"categories_nodes":[],"categories_segments":[],"categories_sizes":[],"default_left":[0,0,0,0,0,0,0,0,0,0,0,0,0,0,0,0,0,0,0,0,0,0,0,0,0,0,0,0,0,0,0,0,0,0,0,0,0,0,0,0,0,0,0,0,0,0,0,0,0,0,0,0,0,0,0],"id":12,"left_children":[1,3,5,7,9,11,13,-1,15,-1,17,19,21,23,25,-1,-1,-1,-1,27,29,31,33,35,37,39,41,-1,-1,-1,43,45,47,49,-1,51,53,-1,-1,-1,-1,-1,-1,-1,-1,-1,-1,-1,-1,-1,-1,-1,-1,-1,-1],"loss_changes":[3.1930312E9,1.0165299E8,2.403543E8,1.1390976E7,1.0867056E7,2.6898232E7,7.887642E7,0E0,6.74432E5,0E0,1.494488E6,1.432732E6,9.82703E5,1.583104E7,1.1130752E7,0E0,0E0,0E0,0E0,2.479E5,1.405185E5,1.7420425E5,5.1241E4,2.4512E6,1.686016E6,1.102368E6,3.40224E5,0E0,0E0,0E0,2.4482562E4,4.529991E4,2.8099875E4,1.5698594E4,0E0,1.89936E5,4.796E4,0E0,0E0,0E0,0E0,0E0,0E0,0E0,0E0,0E0,0E0,0E0,0E0,0E0,0E0,0E0,0E0,0E0,0E0],"parents":[2147483647,0,0,1,1,2,2,3,3,4,4,5,5,6,6,8,8,10,10,11,11,12,12,13,13,14,14,19,19,20,20,21,21,22,22,23,23,24,24,25,25,26,26,30,30,31,31,32,32,33,33,35,35,36,36],"right_children":[2,4,6,8,10,12,14,-1,16,-1,18,20,22,24,26,-1,-1,-1,-1,28,30,32,34,36,38,40,42,-1,-1,-1,44,46,48,50,-1,52,54,-1,-1,-1,-1,-1,-1,-1,-1,-1,-1,-1,-1,-1,-1,-1,-1,-1,-1],"split_conditions":[5.41425E4,5.0705812E4,5.7112344E4,4.9331996E4,5.2112793E4,5.574386E4,5.8919402E4,-1.9680746E2,5.0112875E4,-1.26321815E2,5.3202656E4,5.5044984E4,5.6558867E4,5.811674E4,5.997027E4,-1.7298163E2,-1.5385623E2,-9.10916E1,-6.5378174E1,5.4663125E4,5.5161293E4,5.627125E4,5.647026E4,5.7789754E4,5.8585043E4,5.9508633E4,6.0693812E4,-4.172699E1,-3.1386219E1,-2.2554703E1,5.542284E4,2.2131668E2,5.6313348E4,-6.59354E1,2.9263975E1,5.734023E4,5.7846684E4,6.869393E1,8.031339E1,9.263796E1,1.0665978E2,1.2368319E2,1.4946497E2,-1.5618059E1,-8.789733E0,5.4351006E0,-7.0282817E0,8.073906E0,1.5848686E1,2.229883E0,1.8163671E1,3.80622E1,4.6525787E1,5.301075E1,5.9582336E1],"split_indices":[2,2,0,2,0,1,2,0,2,0,0,1,0,2,2,0,0,0,0,1,0,1,7,1,1,1,2,0,0,0,0,8,0,5,0,2,2,0,0,0,0,0,0,0,0,0,0,0,0,0,0,0,0,0,0],"split_type":[0,0,0,0,0,0,0,0,0,0,0,0,0,0,0,0,0,0,0,0,0,0,0,0,0,0,0,0,0,0,0,0,0,0,0,0,0,0,0,0,0,0,0,0,0,0,0,0,0,0,0,0,0,0,0],"sum_hessian":[3.209E3,9.06E2,2.303E3,6.74E2,2.32E2,4.04E2,1.899E3,2.62E2,4.12E2,1.01E2,1.31E2,2.34E2,1.7E2,1.305E3,5.94E2,2.68E2,1.44E2,7.6E1,5.5E1,1.48E2,8.6E1,6.2E1,1.08E2,6.43E2,6.62E2,4.32E2,1.62E2,5.4E1,9.4E1,4.8E1,3.8E1,1E1,5.2E1,8E0,1E2,2.57E2,3.86E2,3.35E2,3.27E2,2.52E2,1.8E2,1.22E2,4E1,2.5E1,1.3E1,6E0,4E0,9E0,4.3E1,1E0,7E0,7.5E1,1.82E2,1.32E2,2.54E2],"tree_param":{"num_deleted":"0","num_feature":"9","num_nodes":"55","size_leaf_vector":"1"}},{"base_weights":[3.7664056E0,-1.3961733E3,5.642301E2,-1.5810992E3,-7.346967E2,-7.190803E1,6.9700696E2,-1.718206E3,-1.4112843E3,-8.770795E2,-5.364082E2,-2.5794836E2,1.9560942E2,5.3151184E2,8.985901E2,-1.9129138E2,-1.6428667E2,-1.490081E2,-1.267958E2,-9.46145E1,-7.802609E1,-5.8277588E1,-4.1178474E1,-3.1021466E2,-1.7680476E2,8.185961E1,2.4378381E2,4.2998038E2,5.946145E2,7.9379816E2,1.0868079E3,-3.5955135E1,-2.7641468E1,-1.9814762E1,-1.221347E2,-2.0785418E1,1.2235449E2,2.0047922E2,2.7334455E1,3.6123783E1,4.6175995E1,5.5223602E1,6.426101E1,7.487862E1,8.4984856E1,1.0154563E2,1.2821149E2,-4.642578E-1,-1.2616504E1,-9.566699E0,5.907227E-1,5.6377606E0,1.3117729E1,1.3248786E1,2.1027548E1],"categories":[],"categories_nodes":[],"categories_segments":[],"categories_sizes":[],"default_left":[0,0,0,0,0,0,0,0,0,0,0,0,0,0,0,0,0,0,0,0,0,0,0,0,0,0,0,0,0,0,0,0,0,0,0,0,0,0,0,0,0,0,0,0,0,0,0,0,0,0,0,0,0,0,0],"id":13,"left_children":[1,3,5,7,9,11,13,15,17,19,21,23,25,27,29,-1,-1,-1,-1,-1,-1,-1,-1,31,33,35,37,39,41,43,45,-1,-1,-1,47,49,51,53,-1,-1,-1,-1,-1,-1,-1,-1,-1,-1,-1,-1,-1,-1,-1,-1,-1],"loss_changes":[2.513911E9,1.1088742E8,1.9330464E8,1.4222336E7,5.232568E6,1.9758996E7,6.267488E7,2.593024E6,1.781056E6,3.7432E4,2.62752E5,9.37563E5,8.73256E5,6.420288E6,1.5941824E7,0E0,0E0,0E0,0E0,0E0,0E0,0E0,0E0,1.35743E5,8.548025E4,2.103731E5,9.1134E4,7.13592E5,9.4688E5,7.53792E5,2.906592E6,0E0,0E0,0E0,1.3146719E4,3.0546934E4,1.35601875E4,5.444E3,0E0,0E0,0E0,0E0,0E0,0E0,0E0,0E0,0E0,0E0,0E0,0E0,0E0,0E0,0E0,0E0,0E0],"parents":[2147483647,0,0,1,1,2,2,3,3,4,4,5,5,6,6,7,7,8,8,9,9,10,10,11,11,12,12,13,13,14,14,23,23,24,24,25,25,26,26,27,27,28,28,29,29,30,30,34,34,35,35,36,36,37,37],"right_children":[2,4,6,8,10,12,14,16,18,20,22,24,26,28,30,-1,-1,-1,-1,-1,-1,-1,-1,32,34,36,38,40,42,44,46,-1,-1,-1,48,50,52,54,-1,-1,-1,-1,-1,-1,-1,-1,-1,-1,-1,-1,-1,-1,-1,-1,-1],"split_conditions":[5.4389598E4,5.1757344E4,5.7079453E4,4.9785527E4,5.3202656E4,5.5472957E4,5.8661125E4,4.9029395E4,5.0440984E4,5.2309645E4,5.3972367E4,5.5044984E4,5.6489383E4,5.787382E4,5.957578E4,-1.9129138E2,-1.6428667E2,-1.490081E2,-1.267958E2,-9.46145E1,-7.802609E1,-5.8277588E1,-4.1178474E1,5.464163E4,5.5274832E4,5.627125E4,5.6827418E4,5.7550133E4,5.833934E4,5.908619E4,6.0521508E4,-3.5955135E1,-2.7641468E1,-1.9814762E1,-1.16789894E2,1.5183975E2,1.1543125E2,-6.59354E1,2.7334455E1,3.6123783E1,4.6175995E1,5.5223602E1,6.426101E1,7.487862E1,8.4984856E1,1.0154563E2,1.2821149E2,-4.642578E-1,-1.2616504E1,-9.566699E0,5.907227E-1,5.6377606E0,1.3117729E1,1.3248786E1,2.1027548E1],"split_indices":[6,0,0,1,0,7,1,0,0,0,7,1,0,6,1,0,0,0,0,0,0,0,0,0,0,1,0,1,1,1,1,0,0,0,5,8,8,5,0,0,0,0,0,0,0,0,0,0,0,0,0,0,0,0,0],"split_type":[0,0,0,0,0,0,0,0,0,0,0,0,0,0,0,0,0,0,0,0,0,0,0,0,0,0,0,0,0,0,0,0,0,0,0,0,0,0,0,0,0,0,0,0,0,0,0,0,0,0,0,0,0,0,0],"sum_hessian":[3.202E3,9.15E2,2.287E3,7.14E2,2.01E2,3.95E2,1.892E3,3.9E2,3.24E2,1.15E2,8.6E1,2.33E2,1.62E2,1.041E3,8.51E2,1.02E2,2.88E2,2.03E2,1.21E2,6.2E1,5.3E1,6E1,2.6E1,1.4E2,9.3E1,4.9E1,1.13E2,4.02E2,6.39E2,5.5E2,3.01E2,5.3E1,8.7E1,6.5E1,2.8E1,1.4E1,3.5E1,4.9E1,6.4E1,1.31E2,2.71E2,3.46E2,2.93E2,3.13E2,2.37E2,2.25E2,7.6E1,1E0,2.7E1,3E0,1.1E1,5E0,3E1,8E0,4.1E1],"tree_param":{"num_deleted":"0","num_feature":"9","num_nodes":"55","size_leaf_vector":"1"}},{"base_weights":[6.7161193E0,-1.2454248E3,5.131786E2,-1.4238784E3,-6.8047174E2,7.7790895E0,6.349109E2,-1.5373728E3,-1.2722255E3,-8.435357E2,-4.9902835E2,-2.200315E2,2.1219124E2,5.2302106E2,8.689584E2,-1.7130504E2,-1.4760313E2,-1.3207011E2,-1.11153496E2,-9.246119E1,-7.580079E1,-5.9327156E1,-4.1668896E1,-2.8181269E1,-1.7041888E2,1.13127106E2,2.582081E2,4.3614215E2,6.027694E2,7.8686896E2,1.0554647E3,-1.8716193E2,-1.0643663E2,4.2059795E1,1.4713933E2,2.1089787E2,2.9213598E1,3.83565E2,4.79584E1,5.6399807E1,6.540065E1,7.2736015E1,8.329496E1,9.807125E1,1.2089569E2,-8.318164E0,-1.897037E1,-4.4101563E-1,-1.1019111E1,7.1300226E-1,7.644111E0,7.860742E0,1.562556E1,2.1749937E1,1.4198786E1,3.4731506E1,3.9896034E1],"categories":[],"categories_nodes":[],"categories_segments":[],"categories_sizes":[],"default_left":[0,0,0,0,0,0,0,0,0,0,0,0,0,0,0,0,0,0,0,0,0,0,0,0,0,0,0,0,0,0,0,0,0,0,0,0,0,0,0,0,0,0,0,0,0,0,0,0,0,0,0,0,0,0,0,0,0],"id":14,"left_children":[1,3,5,7,9,11,13,15,17,19,21,23,25,27,29,-1,-1,-1,-1,-1,-1,-1,-1,-1,31,33,35,37,39,41,43,45,47,49,51,53,-1,55,-1,-1,-1,-1,-1,-1,-1,-1,-1,-1,-1,-1,-1,-1,-1,-1,-1,-1,-1],"loss_changes":[2.0280562E9,9.188442E7,1.4008397E8,1.0075264E7,6.176936E6,2.067598E7,4.759968E7,1.728064E6,9.07808E5,1.03512E5,5.90858E5,5.9565E5,1.037507E6,8.356064E6,8.23312E6,0E0,0E0,0E0,0E0,0E0,0E0,0E0,0E0,0E0,1.07559E5,1.7751531E5,1.93606E5,1.184184E6,9.14464E5,5.32176E5,8.5672E5,8.79925E3,9.856531E3,3.0679188E4,1.9579625E4,9.6125E2,0E0,1.5468E4,0E0,0E0,0E0,0E0,0E0,0E0,0E0,0E0,0E0,0E0,0E0,0E0,0E0,0E0,0E0,0E0,0E0,0E0,0E0],"parents":[2147483647,0,0,1,1,2,2,3,3,4,4,5,5,6,6,7,7,8,8,9,9,10,10,11,11,12,12,13,13,14,14,24,24,25,25,26,26,27,27,28,28,29,29,30,30,31,31,32,32,33,33,34,34,35,35,37,37],"right_children":[2,4,6,8,10,12,14,16,18,20,22,24,26,28,30,-1,-1,-1,-1,-1,-1,-1,-1,-1,32,34,36,38,40,42,44,46,48,50,52,54,-1,56,-1,-1,-1,-1,-1,-1,-1,-1,-1,-1,-1,-1,-1,-1,-1,-1,-1,-1,-1],"split_conditions":[5.4437375E4,5.15363E4,5.7288438E4,4.983952E4,5.297549E4,5.5472957E4,5.8900043E4,4.9029395E4,5.0545344E4,5.211499E4,5.357429E4,5.4882633E4,5.6746203E4,5.821635E4,5.9941258E4,-1.7130504E2,-1.4760313E2,-1.3207011E2,-1.11153496E2,-9.246119E1,-7.580079E1,-5.9327156E1,-4.1668896E1,-2.8181269E1,5.5319027E4,5.6313348E4,5.697015E4,5.7779605E4,5.8554812E4,5.9238402E4,6.060755E4,-9.1153435E1,-1.16789894E2,5.627125E4,-6.7048294E1,6.0365154E1,2.9213598E1,5.758776E4,4.79584E1,5.6399807E1,6.540065E1,7.2736015E1,8.329496E1,9.807125E1,1.2089569E2,-8.318164E0,-1.897037E1,-4.4101563E-1,-1.1019111E1,7.1300226E-1,7.644111E0,7.860742E0,1.562556E1,2.1749937E1,1.4198786E1,3.4731506E1,3.9896034E1],"split_indices":[0,1,2,1,7,7,6,0,0,2,0,1,1,1,1,0,0,0,0,0,0,0,0,0,1,0,2,0,0,2,2,5,5,1,5,5,0,1,0,0,0,0,0,0,0,0,0,0,0,0,0,0,0,0,0,0,0],"split_type":[0,0,0,0,0,0,0,0,0,0,0,0,0,0,0,0,0,0,0,0,0,0,0,0,0,0,0,0,0,0,0,0,0,0,0,0,0,0,0,0,0,0,0,0,0,0,0,0,0,0,0,0,0,0,0,0,0],"sum_hessian":[3.196E3,9.2E2,2.276E3,6.98E2,2.22E2,4.42E2,1.834E3,3.94E2,3.04E2,1.15E2,1.07E2,2.09E2,2.33E2,1.243E3,5.91E2,9.5E1,2.99E2,2.28E2,7.6E1,5.4E1,6.1E1,4.7E1,6E1,9.1E1,1.18E2,7.5E1,1.58E2,5.98E2,6.45E2,4.14E2,1.77E2,9.2E1,2.6E1,2.5E1,5E1,6.9E1,8.9E1,2.75E2,3.23E2,3.74E2,2.71E2,1.88E2,2.26E2,1.24E2,5.3E1,3E0,8.9E1,1E0,2.5E1,1.3E1,1.2E1,7E0,4.3E1,6.1E1,8E0,8.9E1,1.86E2],"tree_param":{"num_deleted":"0","num_feature":"9","num_nodes":"57","size_leaf_vector":"1"}},{"base_weights":[2.1883204E0,-1.1551154E3,4.5030496E2,-1.2760394E3,-6.349632E2,-9.910012E1,5.5762634E2,-1.4606407E3,-1.1841486E3,-7.4473564E1,-4.945329E2,-2.2342072E2,1.3522266E2,4.2629382E2,7.3174927E2,-1.6387294E2,-1.4055074E2,-1.2384466E2,-1.04373024E2,-5.491325E1,-4.318666E1,-2.744333E2,-1.5475224E2,3.3447414E1,1.5868933E2,3.385296E2,4.8990472E2,6.543733E2,8.954532E2,-2.3064323E2,-3.2808186E1,-1.1832777E2,-2.0706068E2,-1.6170673E1,7.7132256E1,1.9957285E2,1.0988442E2,3.641567E2,2.5762524E2,5.1524536E2,4.0532494E1,6.1495795E2,7.167007E1,8.387319E1,1.05290886E2,-2.6664759E1,-1.8901342E1,-1.4112025E1,-7.5303283E0,-2.3786915E1,-1.5105621E1,1.0729688E0,-7.9378905E0,1.0034532E1,1.5279688E0,1.5052821E1,2.1665361E1,1.2285012E1,6.6842914E0,2.9302216E1,3.8996544E1,2.7868155E1,2.0890684E1,4.7707447E1,5.5146107E1,6.5711945E1,5.688458E1],"categories":[],"categories_nodes":[],"categories_segments":[],"categories_sizes":[],"default_left":[0,0,0,0,0,0,0,0,0,0,0,0,0,0,0,0,0,0,0,0,0,0,0,0,0,0,0,0,0,0,0,0,0,0,0,0,0,0,0,0,0,0,0,0,0,0,0,0,0,0,0,0,0,0,0,0,0,0,0,0,0,0,0,0,0,0,0],"id":15,"left_children":[1,3,5,7,9,11,13,15,17,-1,19,21,23,25,27,-1,-1,-1,-1,-1,-1,29,31,33,35,37,39,41,43,45,-1,47,49,51,53,55,57,59,61,63,-1,65,-1,-1,-1,-1,-1,-1,-1,-1,-1,-1,-1,-1,-1,-1,-1,-1,-1,-1,-1,-1,-1,-1,-1,-1,-1],"loss_changes":[1.6647302E9,5.5547136E7,1.3649549E8,1.05856E7,2.267728E6,1.1070915E7,4.396051E7,2.3744E4,2.443392E6,0E0,2.9728E4,8.26265E5,3.0995125E5,6.008704E6,9.940096E6,0E0,0E0,0E0,0E0,0E0,0E0,2.55578E5,1.81272E5,5.760379E4,1.9156875E5,8.76512E5,1.16072E6,9.5464E5,1.474704E6,7.1007E4,0E0,5.4095062E4,3.8261125E4,2.2955926E4,1.8567781E4,1.513775E4,2.0249562E4,5.33796E5,6.07775E4,4.11512E5,0E0,3.16384E5,0E0,0E0,0E0,0E0,0E0,0E0,0E0,0E0,0E0,0E0,0E0,0E0,0E0,0E0,0E0,0E0,0E0,0E0,0E0,0E0,0E0,0E0,0E0,0E0,0E0],"parents":[2147483647,0,0,1,1,2,2,3,3,4,4,5,5,6,6,7,7,8,8,10,10,11,11,12,12,13,13,14,14,21,21,22,22,23,23,24,24,25,25,26,26,27,27,28,28,29,29,31,31,32,32,33,33,34,34,35,35,36,36,37,37,38,38,39,39,41,41],"right_children":[2,4,6,8,10,12,14,16,18,-1,20,22,24,26,28,-1,-1,-1,-1,-1,-1,30,32,34,36,38,40,42,44,46,-1,48,50,52,54,56,58,60,62,64,-1,66,-1,-1,-1,-1,-1,-1,-1,-1,-1,-1,-1,-1,-1,-1,-1,-1,-1,-1,-1,-1,-1,-1,-1,-1,-1],"split_conditions":[5.4198785E4,5.181028E4,5.700473E4,4.9396645E4,5.312051E4,5.5472957E4,5.8688348E4,4.897718E4,5.0398414E4,-7.4473564E1,5.351818E4,5.4933832E4,5.6415992E4,5.7967867E4,5.9653617E4,-1.6387294E2,-1.4055074E2,-1.2384466E2,-1.04373024E2,-5.491325E1,-4.318666E1,1.5587445E2,1.7650543E2,5.627125E4,1.4778542E2,2.0853079E2,2.1381552E2,5.9104047E4,6.0581793E4,5.4720633E4,-3.2808186E1,5.524319E4,5.517153E4,1.8044867E2,1.9750587E2,5.6578113E4,2.8740512E2,5.745064E4,2.8587723E2,5.833934E4,4.0532494E1,1.6059567E2,7.167007E1,8.387319E1,1.05290886E2,-2.6664759E1,-1.8901342E1,-1.4112025E1,-7.5303283E0,-2.3786915E1,-1.5105621E1,1.0729688E0,-7.9378905E0,1.0034532E1,1.5279688E0,1.5052821E1,2.1665361E1,1.2285012E1,6.6842914E0,2.9302216E1,3.8996544E1,2.7868155E1,2.0890684E1,4.7707447E1,5.5146107E1,6.5711945E1,5.688458E1],"split_indices":[1,1,1,1,1,7,1,1,6,0,1,1,1,1,1,0,0,0,0,0,0,4,4,1,4,4,4,6,1,1,0,1,1,4,4,1,4,1,4,1,0,4,0,0,0,0,0,0,0,0,0,0,0,0,0,0,0,0,0,0,0,0,0,0,0,0,0],"split_type":[0,0,0,0,0,0,0,0,0,0,0,0,0,0,0,0,0,0,0,0,0,0,0,0,0,0,0,0,0,0,0,0,0,0,0,0,0,0,0,0,0,0,0,0,0,0,0,0,0,0,0,0,0,0,0,0,0,0,0,0,0,0,0,0,0,0,0],"sum_hessian":[3.208E3,8.95E2,2.313E3,7.25E2,1.7E2,3.78E2,1.935E3,2.36E2,4.89E2,9.3E1,7.7E1,2.47E2,1.31E2,1.105E3,8.3E2,4.9E1,1.87E2,3.47E2,1.42E2,3.7E1,4E1,1.4E2,1.07E2,2.5E1,1.06E2,4.67E2,6.38E2,5.67E2,2.63E2,8E1,6E1,6.5E1,4.2E1,1.2E1,1.3E1,5.6E1,5E1,3.52E2,1.15E2,4.87E2,1.51E2,3.54E2,2.13E2,1.98E2,6.5E1,4E1,4E1,4.1E1,2.4E1,2.5E1,1.7E1,9E0,3E0,9E0,4E0,1.7E1,3.9E1,3.7E1,1.3E1,9.7E1,2.55E2,7.7E1,3.8E1,2.44E2,2.43E2,1.78E2,1.76E2],"tree_param":{"num_deleted":"0","num_feature":"9","num_nodes":"67","size_leaf_vector":"1"}},{"base_weights":[4.745325E0,-1.0061507E3,4.17153E2,-1.1509897E3,-5.2158514E2,3.7010386E0,5.1682446E2,-1.2293248E3,-9.9376917E2,-6.483003E2,-3.787338E2,-1.6979121E2,1.811555E2,4.2156403E2,7.006732E2,-1.3432005E2,-1.16069756E2,-1.0348651E2,-8.785937E1,-7.0499176E1,-5.639031E1,-4.4708378E1,-3.2434395E1,-2.0741339E2,-9.576197E1,1.118131E2,2.1823033E2,3.522677E2,4.880155E2,6.422812E2,8.7935315E2,-1.855899E2,-2.863387E1,-1.2257906E2,-3.1433432E1,1.374107E2,6.382368E1,2.3498615E2,1.6283182E2,3.0605716E2,3.8312436E2,4.5787048E2,5.323963E2,5.862693E1,6.807577E1,8.321125E1,1.0477671E2,-2.2769922E1,-1.6796822E1,-9.307072E0,-1.5077765E1,-8.550733E0,-4.1378674E-1,8.432102E0,1.4857511E1,2.3496876E0,8.07959E0,2.001338E1,2.5559753E1,9.593316E0,1.7851954E1,3.40313E1,2.659145E1,4.056831E1,3.1000723E1,4.813794E1,3.8242043E1,5.6764008E1,4.8815426E1],"categories":[],"categories_nodes":[],"categories_segments":[],"categories_sizes":[],"default_left":[0,0,0,0,0,0,0,0,0,0,0,0,0,0,0,0,0,0,0,0,0,0,0,0,0,0,0,0,0,0,0,0,0,0,0,0,0,0,0,0,0,0,0,0,0,0,0,0,0,0,0,0,0,0,0,0,0,0,0,0,0,0,0,0,0,0,0,0,0],"id":16,"left_children":[1,3,5,7,9,11,13,15,17,19,21,23,25,27,29,-1,-1,-1,-1,-1,-1,-1,-1,31,33,35,37,39,41,43,45,47,-1,49,51,53,55,57,59,61,63,65,67,-1,-1,-1,-1,-1,-1,-1,-1,-1,-1,-1,-1,-1,-1,-1,-1,-1,-1,-1,-1,-1,-1,-1,-1,-1,-1],"loss_changes":[1.3265827E9,6.4109376E7,9.31312E7,7.510272E6,3.628172E6,1.3577027E7,3.1596768E7,2.10624E6,2.31488E5,1.38332E5,2.37899E5,6.01224E5,5.36046E5,5.363104E6,5.903968E6,0E0,0E0,0E0,0E0,0E0,0E0,0E0,0E0,2.00055E5,1.2897994E5,8.704625E4,9.262E4,7.26872E5,5.7368E5,6.15984E5,3.21536E5,4.93145E4,0E0,3.0900125E4,3.506964E4,1.7107688E4,1.7950172E4,2.4992E4,2.06555E4,2.42284E5,4.53184E5,4.73968E5,9.8688E4,0E0,0E0,0E0,0E0,0E0,0E0,0E0,0E0,0E0,0E0,0E0,0E0,0E0,0E0,0E0,0E0,0E0,0E0,0E0,0E0,0E0,0E0,0E0,0E0,0E0,0E0],"parents":[2147483647,0,0,1,1,2,2,3,3,4,4,5,5,6,6,7,7,8,8,9,9,10,10,11,11,12,12,13,13,14,14,23,23,24,24,25,25,26,26,27,27,28,28,29,29,30,30,31,31,33,33,34,34,35,35,36,36,37,37,38,38,39,39,40,40,41,41,42,42],"right_children":[2,4,6,8,10,12,14,16,18,20,22,24,26,28,30,-1,-1,-1,-1,-1,-1,-1,-1,32,34,36,38,40,42,44,46,48,-1,50,52,54,56,58,60,62,64,66,68,-1,-1,-1,-1,-1,-1,-1,-1,-1,-1,-1,-1,-1,-1,-1,-1,-1,-1,-1,-1,-1,-1,-1,-1,-1,-1],"split_conditions":[5.445147E4,5.1740824E4,5.7288438E4,4.9992633E4,5.3214566E4,5.627125E4,5.8885434E4,4.9173883E4,5.0714168E4,5.226349E4,5.3554945E4,5.5125754E4,5.6832742E4,5.811674E4,6.0046555E4,-1.3432005E2,-1.16069756E2,-1.0348651E2,-8.785937E1,-7.0499176E1,-5.639031E1,-4.4708378E1,-3.2434395E1,2.1381552E2,5.5404773E4,2.038491E2,2.2685126E2,5.782944E4,5.8645812E4,5.929172E4,6.0804523E4,5.4720633E4,-2.863387E1,1.4879472E2,1.56927E2,5.6415992E4,5.6500523E4,5.706945E4,5.706945E4,1.4407492E2,2.2685126E2,1.9007587E2,1.614111E2,5.862693E1,6.807577E1,8.321125E1,1.0477671E2,-2.2769922E1,-1.6796822E1,-9.307072E0,-1.5077765E1,-8.550733E0,-4.1378674E-1,8.432102E0,1.4857511E1,2.3496876E0,8.07959E0,2.001338E1,2.5559753E1,9.593316E0,1.7851954E1,3.40313E1,2.659145E1,4.056831E1,3.1000723E1,4.813794E1,3.8242043E1,5.6764008E1,4.8815426E1],"split_indices":[2,6,2,2,2,1,2,2,1,2,6,1,1,2,1,0,0,0,0,0,0,0,0,4,2,4,4,1,1,1,2,1,0,4,8,1,1,1,1,4,4,4,4,0,0,0,0,0,0,0,0,0,0,0,0,0,0,0,0,0,0,0,0,0,0,0,0,0,0],"split_type":[0,0,0,0,0,0,0,0,0,0,0,0,0,0,0,0,0,0,0,0,0,0,0,0,0,0,0,0,0,0,0,0,0,0,0,0,0,0,0,0,0,0,0,0,0,0,0,0,0,0,0,0,0,0,0,0,0,0,0,0,0,0,0,0,0,0,0,0,0],"sum_hessian":[3.18E3,9.21E2,2.259E3,7.08E2,2.13E2,4.39E2,1.82E3,4.68E2,2.4E2,1.11E2,1.02E2,2.22E2,2.17E2,1.201E3,6.19E2,1.69E2,2.99E2,1.71E2,6.9E1,6.2E1,4.9E1,4.2E1,6E1,1.46E2,7.6E1,7.7E1,1.4E2,5.91E2,6.1E2,4.7E2,1.49E2,1.17E2,2.9E1,5.3E1,2.3E1,4.9E1,2.8E1,1.05E2,3.5E1,2.41E2,3.5E2,3.7E2,2.4E2,1.98E2,2.72E2,1.21E2,2.8E1,3.1E1,8.6E1,2.8E1,2.5E1,7E0,1.6E1,1E1,3.9E1,9E0,1.9E1,4.3E1,6.2E1,8E0,2.7E1,1.26E2,1.15E2,2.64E2,8.6E1,2.78E2,9.2E1,1.27E2,1.13E2],"tree_param":{"num_deleted":"0","num_feature":"9","num_nodes":"69","size_leaf_vector":"1"}},{"base_weights":[1.2044867E-1,-9.18432E2,3.6859766E2,-1.0366693E3,-4.8423102E2,-6.434899E1,4.5334363E2,-1.167674E3,-9.525419E2,-5.8106335E2,-3.6128583E2,-1.622658E2,1.2059775E2,3.4866565E2,5.950464E2,-1.3362903E2,-1.1099229E2,-9.887539E1,-8.031953E1,-6.3358562E1,-5.0489197E1,-3.900911E1,-2.7194061E1,-2.06594E2,-1.12761955E2,1.601348E2,9.1817726E1,2.860175E2,4.0573663E2,5.4669916E2,7.6895374E2,-1.803605E2,-2.4601245E2,-7.7795044E1,-1.5211603E2,9.332584E1,1.7541035E1,4.4165104E1,1.19687744E2,2.3796758E2,3.140903E2,4.3244214E2,3.5670834E2,5.0265076E2,5.9807697E1,7.14666E1,8.871226E1,-1.876545E1,-1.3257059E1,-2.4862093E1,-6.1707034E0,-9.279283E0,-5.07194E-1,-1.6963217E1,-7.6673503E0,9.979063E0,4.066797E0,1.8688616E0,6.2547793E0,1.0321192E1,1.4366061E1,2.562197E1,1.8354261E1,3.5407955E1,2.7317259E1,4.0681286E1,4.6534317E1,3.301583E1,4.035748E1,5.3608624E1,4.6651867E1],"categories":[],"categories_nodes":[],"categories_segments":[],"categories_sizes":[],"default_left":[0,0,0,0,0,0,0,0,0,0,0,0,0,0,0,0,0,0,0,0,0,0,0,0,0,0,0,0,0,0,0,0,0,0,0,0,0,0,0,0,0,0,0,0,0,0,0,0,0,0,0,0,0,0,0,0,0,0,0,0,0,0,0,0,0,0,0,0,0,0,0],"id":17,"left_children":[1,3,5,7,9,11,13,15,17,19,21,23,25,27,29,-1,-1,-1,-1,-1,-1,-1,-1,31,33,35,37,39,41,43,45,47,49,51,53,55,-1,57,59,61,63,65,67,69,-1,-1,-1,-1,-1,-1,-1,-1,-1,-1,-1,-1,-1,-1,-1,-1,-1,-1,-1,-1,-1,-1,-1,-1,-1,-1,-1],"loss_changes":[1.07225914E9,4.6062336E7,8.298637E7,6.73472E6,2.12346E6,6.738153E6,2.7842016E7,1.18496E6,1.58E6,1.12184E5,1.2297E5,5.09947E5,1.3208312E5,3.78112E6,6.322784E6,0E0,0E0,0E0,0E0,0E0,0E0,0E0,0E0,8.6958E4,1.4916862E5,3.77185E4,9.697606E4,6.30736E5,5.8944E5,1.127392E6,4.694E5,3.00875E3,7.73475E3,6.933319E4,5.8352625E4,2.6773438E1,0E0,1.2880863E4,4.1311875E3,1.48667E5,4.38334E5,1.16784E5,1.23084E5,1.67904E5,0E0,0E0,0E0,0E0,0E0,0E0,0E0,0E0,0E0,0E0,0E0,0E0,0E0,0E0,0E0,0E0,0E0,0E0,0E0,0E0,0E0,0E0,0E0,0E0,0E0,0E0,0E0],"parents":[2147483647,0,0,1,1,2,2,3,3,4,4,5,5,6,6,7,7,8,8,9,9,10,10,11,11,12,12,13,13,14,14,23,23,24,24,25,25,26,26,27,27,28,28,29,29,30,30,31,31,32,32,33,33,34,34,35,35,37,37,38,38,39,39,40,40,41,41,42,42,43,43],"right_children":[2,4,6,8,10,12,14,16,18,20,22,24,26,28,30,-1,-1,-1,-1,-1,-1,-1,-1,32,34,36,38,40,42,44,46,48,50,52,54,56,-1,58,60,62,64,66,68,70,-1,-1,-1,-1,-1,-1,-1,-1,-1,-1,-1,-1,-1,-1,-1,-1,-1,-1,-1,-1,-1,-1,-1,-1,-1,-1,-1],"split_conditions":[5.436985E4,5.174876E4,5.697015E4,4.937607E4,5.3202656E4,5.61658E4,5.8639883E4,4.8928395E4,5.0659066E4,5.2309645E4,5.41425E4,5.490149E4,1.4778542E2,5.8042363E4,5.9890594E4,-1.3362903E2,-1.1099229E2,-9.887539E1,-8.031953E1,-6.3358562E1,-5.0489197E1,-3.900911E1,-2.7194061E1,1.7784245E2,1.5296448E2,5.6406293E4,5.6643758E4,5.7636168E4,1.8356088E2,5.9142926E4,6.060755E4,5.4882633E4,5.5125754E4,5.5472965E4,5.51711E4,7.665E3,1.7541035E1,5.6500523E4,5.700473E4,1.9665822E2,1.471541E2,5.8435895E4,5.8524594E4,1.4458286E2,5.9807697E1,7.14666E1,8.871226E1,-1.876545E1,-1.3257059E1,-2.4862093E1,-6.1707034E0,-9.279283E0,-5.07194E-1,-1.6963217E1,-7.6673503E0,9.979063E0,4.066797E0,1.8688616E0,6.2547793E0,1.0321192E1,1.4366061E1,2.562197E1,1.8354261E1,3.5407955E1,2.7317259E1,4.0681286E1,4.6534317E1,3.301583E1,4.035748E1,5.3608624E1,4.6651867E1],"split_indices":[0,2,2,2,0,0,2,0,1,0,2,2,4,1,0,0,0,0,0,0,0,0,0,4,4,0,1,1,4,2,2,1,1,1,7,3,0,1,1,4,4,1,1,4,0,0,0,0,0,0,0,0,0,0,0,0,0,0,0,0,0,0,0,0,0,0,0,0,0,0,0],"split_type":[0,0,0,0,0,0,0,0,0,0,0,0,0,0,0,0,0,0,0,0,0,0,0,0,0,0,0,0,0,0,0,0,0,0,0,0,0,0,0,0,0,0,0,0,0,0,0,0,0,0,0,0,0,0,0,0,0,0,0,0,0,0,0,0,0,0,0,0,0,0,0],"sum_hessian":[3.166E3,9.06E2,2.26E3,7.11E2,1.95E2,3.7E2,1.89E3,2.73E2,4.38E2,1.07E2,8.8E1,2.42E2,1.28E2,1.089E3,8.01E2,6.4E1,2.09E2,3.48E2,9E1,5.9E1,4.8E1,6.4E1,2.4E1,1.26E2,1.16E2,5.2E1,7.6E1,5.22E2,5.67E2,6.3E2,1.71E2,7.9E1,4.7E1,6.3E1,5.3E1,1.1E1,4.1E1,2.9E1,4.7E1,1.96E2,3.26E2,3.62E2,2.05E2,3.45E2,2.85E2,1.22E2,4.9E1,6.6E1,1.3E1,4.6E1,1E0,5.2E1,1.1E1,4.2E1,1.1E1,9E0,2E0,1.3E1,1.6E1,3.1E1,1.6E1,1.44E2,5.2E1,1.61E2,1.65E2,2.11E2,1.51E2,1.36E2,6.9E1,1.72E2,1.73E2],"tree_param":{"num_deleted":"0","num_feature":"9","num_nodes":"71","size_leaf_vector":"1"}},{"base_weights":[-1.5259024E0,-8.326811E2,3.3231726E2,-9.3041364E2,-4.5530057E2,-3.539323E1,4.133305E2,-1.00399316E3,-8.162149E2,-5.5426716E1,-3.5159128E2,-1.5729042E2,1.1634595E2,3.4092816E2,5.7725183E2,-1.1497152E2,-9.647104E1,-8.507898E1,-7.253634E1,-4.032121E1,-3.0015806E1,-1.8236252E2,-9.857455E1,6.1409058E1,1.492518E2,2.8562936E2,4.0624905E2,5.3192816E2,7.176109E2,-1.6234769E2,-2.3472927E1,-5.3192425E1,-1.1786464E2,1.1589199E2,3.9273136E1,1.6828629E2,1.0935498E2,2.4964874E2,3.2596478E2,4.3207153E2,3.681183E2,4.941751E2,5.7930218E1,6.8038994E1,8.571453E1,-1.8543135E1,-1.3888555E1,-2.690067E0,-6.088948E0,-1.2582394E1,-6.8509555E0,-1.4267578E0,1.2349342E1,-8.9458704E-1,5.557552E0,8.105144E0,1.7328802E1,1.1221835E1,-1.1582031E-1,2.0994919E1,2.6835936E1,3.4168926E1,2.73214E1,3.995286E1,4.569001E1,3.339799E1,3.9224037E1,5.0413986E1,3.8432674E1],"categories":[],"categories_nodes":[],"categories_segments":[],"categories_sizes":[],"default_left":[0,0,0,0,0,0,0,0,0,0,0,0,0,0,0,0,0,0,0,0,0,0,0,0,0,0,0,0,0,0,0,0,0,0,0,0,0,0,0,0,0,0,0,0,0,0,0,0,0,0,0,0,0,0,0,0,0,0,0,0,0,0,0,0,0,0,0,0,0],"id":18,"left_children":[1,3,5,7,9,11,13,15,17,-1,19,21,23,25,27,-1,-1,-1,-1,-1,-1,29,31,33,35,37,39,41,43,45,-1,47,49,51,53,55,57,59,61,63,65,67,-1,-1,-1,-1,-1,-1,-1,-1,-1,-1,-1,-1,-1,-1,-1,-1,-1,-1,-1,-1,-1,-1,-1,-1,-1,-1,-1],"loss_changes":[8.898631E8,3.3471296E7,6.817285E7,5.306048E6,1.7655E6,7.6758835E6,2.2056224E7,1.40384E6,2.96944E5,0E0,1.33856E5,3.20614E5,3.252675E5,4.590608E6,3.263472E6,0E0,0E0,0E0,0E0,0E0,0E0,1.295895E5,5.5885688E4,8.107666E4,6.893E4,9.47592E5,4.26808E5,4.95304E5,1.28328E5,3.869575E4,0E0,3.0165156E3,1.06285625E4,2.1549938E4,4.137358E4,1.91155E4,1.2787625E4,2.2518E5,1.81208E5,9.9444E4,7.24E4,7.9896E4,0E0,0E0,0E0,0E0,0E0,0E0,0E0,0E0,0E0,0E0,0E0,0E0,0E0,0E0,0E0,0E0,0E0,0E0,0E0,0E0,0E0,0E0,0E0,0E0,0E0,0E0,0E0],"parents":[2147483647,0,0,1,1,2,2,3,3,4,4,5,5,6,6,7,7,8,8,10,10,11,11,12,12,13,13,14,14,21,21,22,22,23,23,24,24,25,25,26,26,27,27,28,28,29,29,31,31,32,32,33,33,34,34,35,35,36,36,37,37,38,38,39,39,40,40,41,41],"right_children":[2,4,6,8,10,12,14,16,18,-1,20,22,24,26,28,-1,-1,-1,-1,-1,-1,30,32,34,36,38,40,42,44,46,-1,48,50,52,54,56,58,60,62,64,66,68,-1,-1,-1,-1,-1,-1,-1,-1,-1,-1,-1,-1,-1,-1,-1,-1,-1,-1,-1,-1,-1,-1,-1,-1,-1,-1,-1],"split_conditions":[5.4280004E4,5.1740824E4,5.712424E4,4.9866062E4,5.2797402E4,5.558491E4,5.8942957E4,4.9000156E4,5.058777E4,-5.5426716E1,5.34671E4,5.5009566E4,5.6529703E4,5.8233996E4,6.0018266E4,-1.1497152E2,-9.647104E1,-8.507898E1,-7.253634E1,-4.032121E1,-3.0015806E1,2.0547064E2,1.00348465E2,9.081474E1,1.8890881E2,5.7859594E4,1.6059567E2,5.9418527E4,6.0811336E4,5.4745184E4,-2.3472927E1,3.3357155E1,5.542284E4,4.52E2,5.61658E4,5.647026E4,5.7151336E4,5.744492E4,2.0163522E2,5.852778E4,5.852778E4,2.9224622E2,5.7930218E1,6.8038994E1,8.571453E1,-1.8543135E1,-1.3888555E1,-2.690067E0,-6.088948E0,-1.2582394E1,-6.8509555E0,-1.4267578E0,1.2349342E1,-8.9458704E-1,5.557552E0,8.105144E0,1.7328802E1,1.1221835E1,-1.1582031E-1,2.0994919E1,2.6835936E1,3.4168926E1,2.73214E1,3.995286E1,4.569001E1,3.339799E1,3.9224037E1,5.0413986E1,3.8432674E1],"split_indices":[0,6,6,0,6,6,0,0,0,0,0,0,6,0,0,0,0,0,0,0,0,4,4,4,4,6,4,0,0,0,0,4,0,3,0,7,0,6,4,0,0,4,0,0,0,0,0,0,0,0,0,0,0,0,0,0,0,0,0,0,0,0,0,0,0,0,0,0,0],"split_type":[0,0,0,0,0,0,0,0,0,0,0,0,0,0,0,0,0,0,0,0,0,0,0,0,0,0,0,0,0,0,0,0,0,0,0,0,0,0,0,0,0,0,0,0,0,0,0,0,0,0,0,0,0,0,0,0,0,0,0,0,0,0,0,0,0,0,0,0,0],"sum_hessian":[3.205E3,9.18E2,2.287E3,7.28E2,1.9E2,4.13E2,1.874E3,4.38E2,2.9E2,9.5E1,9.5E1,2.29E2,1.84E2,1.302E3,5.72E2,8.7E1,3.51E2,2.04E2,8.6E1,4.4E1,5.1E1,1.59E2,7E1,7E1,1.14E2,7.08E2,5.94E2,4.36E2,1.36E2,1.18E2,4.1E1,2.2E1,4.8E1,1.9E1,5.1E1,7.5E1,3.9E1,3.78E2,3.3E2,3.48E2,2.46E2,2.49E2,1.87E2,1.12E2,2.4E1,5.6E1,6.2E1,6E0,1.6E1,4E1,8E0,1E0,1.8E1,1.3E1,3.8E1,5E0,7E1,3.8E1,1E0,1.25E2,2.53E2,2.5E2,8E1,1.58E2,1.9E2,1.08E2,1.38E2,2.25E2,2.4E1],"tree_param":{"num_deleted":"0","num_feature":"9","num_nodes":"69","size_leaf_vector":"1"}},{"base_weights":[-1.6940312E0,-7.3001984E2,3.029913E2,-8.38524E2,-3.8750455E2,-8.699683E0,3.7633514E2,-9.835685E2,-7.843313E2,-4.7918246E2,-2.812033E2,-1.3170988E2,1.1783297E2,3.1181888E2,5.2501245E2,-1.1365387E2,-9.4294334E1,-8.2473285E2,-6.872632E1,-5.267404E1,-4.1253582E1,-3.167575E2,-2.2228906E2,-1.552328E2,-8.478974E1,4.99793E1,1.4816423E2,2.632957E2,3.7065527E2,4.8198132E2,6.586386E2,-7.827812E1,-8.692668E1,-2.8113083E2,-3.8821526E1,-1.6333439E1,-2.4435677E1,-1.314968E2,-1.9125113E1,-6.85674E1,-1.3610316E2,7.595914E1,1.3317484E1,1.7670619E2,1.2677708E2,2.9418176E2,2.2777441E2,4.169148E1,3.4618488E2,4.4866364E2,5.2587196E1,6.2021492E1,7.8367E1,-6.5376954E0,-2.8439987E1,-5.426172E0,-1.37356825E1,-3.5846615E0,-7.7950606E0,-1.4069312E1,-3.1332033E0,1.8918457E0,8.784558E0,3.3488038E0,-1.0685827E0,1.0926507E1,1.821762E1,9.50571E0,1.4943631E1,2.4705761E1,3.1828077E1,1.9940174E1,2.6216602E1,3.5644054E1,2.7910248E1,4.6162594E1,3.633183E1],"categories":[],"categories_nodes":[],"categories_segments":[],"categories_sizes":[],"default_left":[0,0,0,0,0,0,0,0,0,0,0,0,0,0,0,0,0,0,0,0,0,0,0,0,0,0,0,0,0,0,0,0,0,0,0,0,0,0,0,0,0,0,0,0,0,0,0,0,0,0,0,0,0,0,0,0,0,0,0,0,0,0,0,0,0,0,0,0,0,0,0,0,0,0,0,0,0],"id":19,"left_children":[1,3,5,7,9,11,13,15,17,19,21,23,25,27,29,-1,-1,31,-1,-1,-1,33,35,37,39,41,43,45,47,49,51,-1,-1,53,-1,-1,-1,55,-1,57,59,61,63,65,67,69,71,-1,73,75,-1,-1,-1,-1,-1,-1,-1,-1,-1,-1,-1,-1,-1,-1,-1,-1,-1,-1,-1,-1,-1,-1,-1,-1,-1,-1,-1],"loss_changes":[7.072271E8,3.4609536E7,5.1371056E7,4.83296E6,2.08722E6,6.692822E6,1.7284336E7,1.09056E5,1.488192E6,1.66222E5,1.55811E5,2.2744425E5,4.28909E5,3.531016E6,2.839328E6,0E0,0E0,1.472E3,0E0,0E0,0E0,5.6338E4,1.7332E4,9.79615E4,5.3099562E4,6.280378E4,6.67205E4,7.00972E5,5.03168E5,3.76776E5,1.43304E5,0E0,0E0,1.455625E4,0E0,0E0,0E0,3.328075E4,0E0,1.532025E4,3.767E3,2.4780516E4,1.4398486E4,2.228875E3,4.8326375E4,3.4269E5,2.69732E5,0E0,1.61948E5,1.03316E5,0E0,0E0,0E0,0E0,0E0,0E0,0E0,0E0,0E0,0E0,0E0,0E0,0E0,0E0,0E0,0E0,0E0,0E0,0E0,0E0,0E0,0E0,0E0,0E0,0E0,0E0,0E0],"parents":[2147483647,0,0,1,1,2,2,3,3,4,4,5,5,6,6,7,7,8,8,9,9,10,10,11,11,12,12,13,13,14,14,17,17,21,21,22,22,23,23,24,24,25,25,26,26,27,27,28,28,29,29,30,30,33,33,37,37,39,39,40,40,41,41,42,42,43,43,44,44,45,45,46,46,48,48,49,49],"right_children":[2,4,6,8,10,12,14,16,18,20,22,24,26,28,30,-1,-1,32,-1,-1,-1,34,36,38,40,42,44,46,48,50,52,-1,-1,54,-1,-1,-1,56,-1,58,60,62,64,66,68,70,72,-1,74,76,-1,-1,-1,-1,-1,-1,-1,-1,-1,-1,-1,-1,-1,-1,-1,-1,-1,-1,-1,-1,-1,-1,-1,-1,-1,-1,-1],"split_conditions":[5.4523855E4,5.174876E4,5.726802E4,4.929827E4,5.3214566E4,5.574386E4,5.902686E4,4.884845E4,5.0315E4,5.226349E4,5.4198785E4,5.5095598E4,5.6643758E4,5.833934E4,6.0059055E4,-1.1365387E2,-9.4294334E1,1.6224263E2,-6.872632E1,-5.267404E1,-4.1253582E1,1.8554811E2,1.17593864E2,1.7784245E2,2.1278502E2,1.7966403E2,1.2735969E2,1.471541E2,1.079996E2,5.9439258E4,6.0886402E4,-7.827812E1,-8.692668E1,1.037862E2,-3.8821526E1,-1.6333439E1,-2.4435677E1,3.999054E1,-1.9125113E1,8.075454E1,5.5472965E4,5.618215E4,2.4828903E2,-1.08952934E2,5.706945E4,5.7816324E4,5.7976266E4,4.169148E1,2.7134897E2,2.7134897E2,5.2587196E1,6.2021492E1,7.8367E1,-6.5376954E0,-2.8439987E1,-5.426172E0,-1.37356825E1,-3.5846615E0,-7.7950606E0,-1.4069312E1,-3.1332033E0,1.8918457E0,8.784558E0,3.3488038E0,-1.0685827E0,1.0926507E1,1.821762E1,9.50571E0,1.4943631E1,2.4705761E1,3.1828077E1,1.9940174E1,2.6216602E1,3.5644054E1,2.7910248E1,4.6162594E1,3.633183E1],"split_indices":[1,2,2,1,2,1,1,2,2,2,1,1,1,1,2,0,0,4,0,0,0,4,4,4,4,4,4,4,4,2,1,0,0,8,0,0,0,4,0,4,1,2,4,5,1,1,1,0,4,4,0,0,0,0,0,0,0,0,0,0,0,0,0,0,0,0,0,0,0,0,0,0,0,0,0,0,0],"split_type":[0,0,0,0,0,0,0,0,0,0,0,0,0,0,0,0,0,0,0,0,0,0,0,0,0,0,0,0,0,0,0,0,0,0,0,0,0,0,0,0,0,0,0,0,0,0,0,0,0,0,0,0,0,0,0,0,0,0,0,0,0,0,0,0,0,0,0,0,0,0,0,0,0,0,0,0,0],"sum_hessian":[3.185E3,9.39E2,2.246E3,7.12E2,2.27E2,4.28E2,1.818E3,1.89E2,5.23E2,1.2E2,1.07E2,2.17E2,2.11E2,1.27E3,5.48E2,3.4E1,1.55E2,3.64E2,1.59E2,6.6E1,5.4E1,6.4E1,4.3E1,1.43E2,7.4E1,6.6E1,1.45E2,6.99E2,5.71E2,4.18E2,1.3E2,1.97E2,1.67E2,4.6E1,1.8E1,1.4E1,2.9E1,8.9E1,5.4E1,5.8E1,1.6E1,3.8E1,2.8E1,5.9E1,8.6E1,3.7E2,3.29E2,1.92E2,3.79E2,2.44E2,1.74E2,1.04E2,2.6E1,1E0,4.5E1,7E0,8.2E1,1.4E1,4.4E1,1.5E1,1E0,7E0,3.1E1,1.5E1,1.3E1,6E0,5.3E1,3.8E1,4.8E1,1.29E2,2.41E2,1.84E2,1.45E2,3.25E2,5.4E1,2.08E2,3.6E1],"tree_param":{"num_deleted":"0","num_feature":"9","num_nodes":"77","size_leaf_vector":"1"}},{"base_weights":[-7.348499E0,-6.833891E2,2.6520865E2,-7.750247E2,-4.2850845E2,-1.704812E1,3.398179E2,-8.8282666E2,-7.2734814E2,-5.335624E2,-3.3453378E2,-1.2189735E2,1.1798293E2,2.7052188E2,4.4996228E2,-1.0545241E2,-8.503104E1,-7.5323845E1,-6.6038605E1,-5.6788757E1,-4.5859585E1,-3.6694546E1,-2.4470117E2,-1.4348997E2,-5.4655552E1,7.564205E1,1.4015384E2,2.2028868E2,3.04927E2,4.0747195E2,5.589345E2,-6.2107425E0,-2.4795757E2,-1.0952784E2,-1.6751746E2,-3.921412E1,-1.10311386E2,9.836124E1,4.0955395E1,1.5462251E2,1.0848421E2,2.5046844E2,1.8139874E2,3.314228E2,2.644297E2,3.8409323E2,4.4492428E1,5.2389856E2,6.7897385E1,-2.8387976E1,-2.032297E1,-1.2805638E1,-7.834096E0,-2.1361845E1,-1.4916519E1,-6.224437E0,-5.9709824E-3,-6.0993752E0,-1.2393907E1,1.1290535E1,7.328187E0,2.3295898E0,6.697494E0,3.66875E0,1.55525255E1,7.1198616E0,1.1954974E1,2.25208E1,2.7054392E1,1.9121E1,1.2330115E1,3.0956228E1,3.5676094E1,2.7448286E1,1.9741663E1,4.1636333E1,3.489837E1,5.253669E1,1.5035352E1],"categories":[],"categories_nodes":[],"categories_segments":[],"categories_sizes":[],"default_left":[0,0,0,0,0,0,0,0,0,0,0,0,0,0,0,0,0,0,0,0,0,0,0,0,0,0,0,0,0,0,0,0,0,0,0,0,0,0,0,0,0,0,0,0,0,0,0,0,0,0,0,0,0,0,0,0,0,0,0,0,0,0,0,0,0,0,0,0,0,0,0,0,0,0,0,0,0,0,0],"id":20,"left_children":[1,3,5,7,9,11,13,15,17,19,21,23,25,27,29,-1,-1,-1,-1,-1,-1,-1,31,33,35,37,39,41,43,45,47,-1,49,51,53,55,57,59,61,63,65,67,69,71,73,75,-1,77,-1,-1,-1,-1,-1,-1,-1,-1,-1,-1,-1,-1,-1,-1,-1,-1,-1,-1,-1,-1,-1,-1,-1,-1,-1,-1,-1,-1,-1,-1,-1],"loss_changes":[5.8870675E8,2.1108832E7,4.795707E7,2.821984E6,2.240244E6,6.767701E6,1.3624512E7,2.31088E5,3.22608E5,3.2916E4,2.94542E5,3.8272575E5,1.855945E5,1.847768E6,2.985664E6,0E0,0E0,0E0,0E0,0E0,0E0,0E0,7.19475E3,1.4730525E5,5.325442E4,5.428747E4,4.554325E4,4.8742E5,6.1518E5,2.6952E5,4.5178E5,0E0,1.756E3,4.0240688E4,6.712425E4,4.8690023E4,1.8496719E3,7.775375E3,1.2684012E4,3.9825E3,1.04671875E4,6.7372E4,9.15655E4,1.06692E5,1.23666E5,2.13852E5,0E0,4.932E3,0E0,0E0,0E0,0E0,0E0,0E0,0E0,0E0,0E0,0E0,0E0,0E0,0E0,0E0,0E0,0E0,0E0,0E0,0E0,0E0,0E0,0E0,0E0,0E0,0E0,0E0,0E0,0E0,0E0,0E0,0E0],"parents":[2147483647,0,0,1,1,2,2,3,3,4,4,5,5,6,6,7,7,8,8,9,9,10,10,11,11,12,12,13,13,14,14,22,22,23,23,24,24,25,25,26,26,27,27,28,28,29,29,30,30,32,32,33,33,34,34,35,35,36,36,37,37,38,38,39,39,40,40,41,41,42,42,43,43,44,44,45,45,47,47],"right_children":[2,4,6,8,10,12,14,16,18,20,22,24,26,28,30,-1,-1,-1,-1,-1,-1,-1,32,34,36,38,40,42,44,46,48,-1,50,52,54,56,58,60,62,64,66,68,70,72,74,76,-1,78,-1,-1,-1,-1,-1,-1,-1,-1,-1,-1,-1,-1,-1,-1,-1,-1,-1,-1,-1,-1,-1,-1,-1,-1,-1,-1,-1,-1,-1,-1,-1],"split_conditions":[5.4104426E4,5.069234E4,5.7362164E4,4.932402E4,5.21964E4,5.61658E4,5.882846E4,4.890388E4,5.022749E4,5.1988277E4,5.34671E4,5.517153E4,5.6832742E4,5.807457E4,5.9778508E4,-1.0545241E2,-8.503104E1,-7.5323845E1,-6.6038605E1,-5.6788757E1,-4.5859585E1,-3.6694546E1,1.037862E2,1.3008932E2,2.1278502E2,1.7966403E2,1.7462946E2,1.5872946E2,1.6465002E2,5.9375465E4,6.0765402E4,-6.2107425E0,1.5390161E2,5.4882633E4,5.4598254E4,5.5472965E4,1.4441273E2,1.20694466E2,5.6529703E4,5.6662234E4,5.706945E4,5.7803098E4,2.9224622E2,5.8478023E4,3.0946283E2,1.4977534E2,4.4492428E1,3.7105438E2,6.7897385E1,-2.8387976E1,-2.032297E1,-1.2805638E1,-7.834096E0,-2.1361845E1,-1.4916519E1,-6.224437E0,-5.9709824E-3,-6.0993752E0,-1.2393907E1,1.1290535E1,7.328187E0,2.3295898E0,6.697494E0,3.66875E0,1.55525255E1,7.1198616E0,1.1954974E1,2.25208E1,2.7054392E1,1.9121E1,1.2330115E1,3.0956228E1,3.5676094E1,2.7448286E1,1.9741663E1,4.1636333E1,3.489837E1,5.253669E1,1.5035352E1],"split_indices":[0,0,1,1,6,0,1,1,1,1,0,1,1,1,0,0,0,0,0,0,0,0,8,4,4,4,4,4,4,1,1,0,8,1,1,1,8,4,6,6,1,1,4,1,4,4,0,4,0,0,0,0,0,0,0,0,0,0,0,0,0,0,0,0,0,0,0,0,0,0,0,0,0,0,0,0,0,0,0],"split_type":[0,0,0,0,0,0,0,0,0,0,0,0,0,0,0,0,0,0,0,0,0,0,0,0,0,0,0,0,0,0,0,0,0,0,0,0,0,0,0,0,0,0,0,0,0,0,0,0,0,0,0,0,0,0,0,0,0,0,0,0,0,0,0,0,0,0,0,0,0,0,0,0,0,0,0,0,0,0,0],"sum_hessian":[3.193E3,9.17E2,2.276E3,6.73E2,2.44E2,4.76E2,1.8E3,2.01E2,4.72E2,1.13E2,1.31E2,2.68E2,2.08E2,1.107E3,6.93E2,2.7E1,1.74E2,3.33E2,1.39E2,7.3E1,4E1,9.4E1,3.7E1,2.02E2,6.6E1,7.3E1,1.35E2,4.53E2,6.54E2,5.02E2,1.91E2,1E0,3.6E1,8.6E1,1.16E2,5.3E1,1.3E1,4.3E1,3E1,9E1,4.5E1,2.52E2,2.01E2,3.91E2,2.63E2,3.16E2,1.86E2,1.52E2,3.9E1,1.7E1,1.9E1,5.2E1,3.4E1,3E1,8.6E1,3.3E1,2E1,4E0,9E0,2.5E1,1.8E1,1.9E1,1.1E1,1E0,8.9E1,1.2E1,3.3E1,1.17E2,1.35E2,1.7E2,3.1E1,2.17E2,1.74E2,2.26E2,3.7E1,1.59E2,1.57E2,1.51E2,1E0],"tree_param":{"num_deleted":"0","num_feature":"9","num_nodes":"79","size_leaf_vector":"1"}},{"base_weights":[-5.238995E0,-5.9449286E2,2.4455E2,-6.7645435E2,-3.1229614E2,-2.1173503E0,3.0351602E2,-7.6030914E2,-6.169315E2,-3.7611554E2,-2.2453185E2,-1.0131001E2,1.0322589E2,2.3707784E2,3.9417505E2,-9.673815E1,-7.404424E1,-6.542083E1,-5.5747078E1,-4.0855286E1,-3.1879074E1,-2.4873619E2,-1.8624268E2,-1.26368256E2,-6.425569E1,7.31783E1,1.2472224E2,1.9621465E2,2.6961273E2,3.6960056E2,5.475771E1,-2.5070248E1,-7.226172E0,-6.397005E0,-1.9099466E1,-1.4270953E2,-1.1076845E1,-8.049883E1,-1.9926983E1,4.098743E1,8.2990234E1,1.0439953E2,1.342052E2,1.7300667E2,2.1457664E2,2.5282983E2,2.9303278E1,3.465423E2,4.230828E1,-1.4408477E1,-3.0097656E0,-1.0857748E1,-7.3044505E0,-2.5012033E0,5.359961E0,5.2900505E0,6.200335E-1,5.421436E0,9.011144E0,1.0895594E1,4.797969E0,1.4092055E1,1.0361871E1,1.7398075E1,7.910254E0,8.857553E0,2.1522007E1,1.0401172E1,2.5339598E1,3.3143875E1,3.6808804E1],"categories":[],"categories_nodes":[],"categories_segments":[],"categories_sizes":[],"default_left":[0,0,0,0,0,0,0,0,0,0,0,0,0,0,0,0,0,0,0,0,0,0,0,0,0,0,0,0,0,0,0,0,0,0,0,0,0,0,0,0,0,0,0,0,0,0,0,0,0,0,0,0,0,0,0,0,0,0,0,0,0,0,0,0,0,0,0,0,0,0,0],"id":21,"left_children":[1,3,5,7,9,11,13,15,17,19,21,23,25,27,29,-1,-1,-1,-1,-1,-1,31,33,35,37,39,41,43,45,47,-1,-1,-1,-1,-1,49,-1,51,53,55,57,59,61,63,65,67,-1,69,-1,-1,-1,-1,-1,-1,-1,-1,-1,-1,-1,-1,-1,-1,-1,-1,-1,-1,-1,-1,-1,-1,-1],"loss_changes":[4.682068E8,2.169216E7,3.2494168E7,3.189536E6,1.119778E6,4.5245455E6,1.0766416E7,5.17872E5,5.9728E5,9.8472E4,3.98635E4,1.9893925E5,1.2651475E5,1.333748E6,2.666408E6,0E0,0E0,0E0,0E0,0E0,0E0,6.2175E2,1.10235E4,1.784175E4,6.4639375E4,2.5025375E4,9.30825E3,1.6146E5,1.53096E5,6.66064E5,0E0,0E0,0E0,0E0,0E0,5.1105E3,0E0,6.0925938E3,1.1061678E4,9.2036875E3,9.0491875E3,5.8264375E3,1.624375E3,5.5385E3,1.691E3,2.63E3,0E0,2.9652E4,0E0,0E0,0E0,0E0,0E0,0E0,0E0,0E0,0E0,0E0,0E0,0E0,0E0,0E0,0E0,0E0,0E0,0E0,0E0,0E0,0E0,0E0,0E0],"parents":[2147483647,0,0,1,1,2,2,3,3,4,4,5,5,6,6,7,7,8,8,9,9,10,10,11,11,12,12,13,13,14,14,21,21,22,22,23,23,24,24,25,25,26,26,27,27,28,28,29,29,35,35,37,37,38,38,39,39,40,40,41,41,42,42,43,43,44,44,45,45,47,47],"right_children":[2,4,6,8,10,12,14,16,18,20,22,24,26,28,30,-1,-1,-1,-1,-1,-1,32,34,36,38,40,42,44,46,48,-1,-1,-1,-1,-1,50,-1,52,54,56,58,60,62,64,66,68,-1,70,-1,-1,-1,-1,-1,-1,-1,-1,-1,-1,-1,-1,-1,-1,-1,-1,-1,-1,-1,-1,-1,-1,-1],"split_conditions":[5.4523855E4,5.1740824E4,5.7262977E4,4.955163E4,5.3260883E4,5.61658E4,5.8746312E4,4.8789523E4,5.0305715E4,5.258494E4,5.4104426E4,5.5004832E4,5.6894145E4,5.807457E4,6.011643E4,-9.673815E1,-7.404424E1,-6.542083E1,-5.5747078E1,-4.0855286E1,-3.1879074E1,5.4354066E4,5.4198785E4,5.482215E4,5.542284E4,5.6500523E4,5.697015E4,5.7789754E4,5.8456277E4,5.9551926E4,5.475771E1,-2.5070248E1,-7.226172E0,-6.397005E0,-1.9099466E1,9.48E3,-1.1076845E1,-5.9718895E1,1.13037315E2,7.093E3,-5.706141E1,5.6455067E1,6.7296844E1,9.848E3,5.754384E4,5.7798695E4,2.9303278E1,5.9090203E4,4.230828E1,-1.4408477E1,-3.0097656E0,-1.0857748E1,-7.3044505E0,-2.5012033E0,5.359961E0,5.2900505E0,6.200335E-1,5.421436E0,9.011144E0,1.0895594E1,4.797969E0,1.4092055E1,1.0361871E1,1.7398075E1,7.910254E0,8.857553E0,2.1522007E1,1.0401172E1,2.5339598E1,3.3143875E1,3.6808804E1],"split_indices":[1,6,6,1,6,0,1,2,0,1,0,6,1,1,0,0,0,0,0,0,0,1,1,1,0,1,2,1,1,1,0,0,0,0,0,3,0,5,5,3,5,5,5,3,2,6,0,2,0,0,0,0,0,0,0,0,0,0,0,0,0,0,0,0,0,0,0,0,0,0,0],"split_type":[0,0,0,0,0,0,0,0,0,0,0,0,0,0,0,0,0,0,0,0,0,0,0,0,0,0,0,0,0,0,0,0,0,0,0,0,0,0,0,0,0,0,0,0,0,0,0,0,0,0,0,0,0,0,0,0,0,0,0,0,0,0,0,0,0,0,0,0,0,0,0],"sum_hessian":[3.179E3,9.46E2,2.233E3,7.32E2,2.14E2,4.31E2,1.802E3,2.99E2,4.33E2,1.22E2,9.2E1,2.22E2,2.09E2,1.042E3,7.6E2,2.2E1,2.77E2,2.6E2,1.73E2,7.4E1,4.8E1,5.3E1,3.9E1,1.31E2,9.1E1,8.9E1,1.2E2,4.65E2,5.77E2,6.58E2,1.02E2,5.2E1,1E0,2E0,3.7E1,6E1,7.1E1,6.6E1,2.5E1,2.2E1,6.7E1,4.2E1,7.8E1,2.1E2,2.55E2,3.43E2,2.34E2,4.65E2,1.93E2,5.9E1,1E0,1.1E1,5.5E1,2.4E1,1E0,1.6E1,6E0,1.5E1,5.2E1,3.8E1,4E0,6.1E1,1.7E1,2.07E2,3E0,2E0,2.53E2,2E0,3.41E2,2.83E2,1.82E2],"tree_param":{"num_deleted":"0","num_feature":"9","num_nodes":"71","size_leaf_vector":"1"}},{"base_weights":[-6.617052E-1,-5.391893E2,2.2128305E2,-6.280642E2,-3.2158826E2,1.449996E1,2.78957E2,-7.3390546E2,-5.8915356E2,-4.0762344E2,-2.299007E2,-9.110165E1,1.0231585E2,2.3070877E2,3.81331E2,-8.622214E1,-7.040658E1,-5.569761E2,-6.3281918E1,-4.470738E1,-3.3797714E2,-2.662481E2,-1.8398274E2,-1.1013877E2,-4.414761E1,6.526762E1,1.2228299E2,1.9741008E2,2.6706012E2,3.491972E2,4.7799808E2,-5.8062233E1,-4.9876583E1,-2.171263E1,-3.5427456E1,-1.9223291E1,-2.8235327E1,-6.7660155E0,-1.8875066E2,-9.556641E1,-1.6047426E1,-2.2659206E1,-6.917838E1,9.116847E1,4.6726227E1,1.3021837E2,5.111102E1,2.2227364E2,1.6305368E2,3.0378983E1,2.492376E2,3.6936563E2,3.0654324E2,4.4321228E1,5.6328014E1,-1.9019209E1,-5.257422E0,-1.053513E1,-7.0391755E0,-3.980333E0,5.1390624E-1,-7.3600082E0,2.9525392E0,4.3603797E0,9.849526E0,2.678177E0,6.574717E0,1.0677017E1,1.4390388E1,6.452417E0,-1.5319337E0,2.462725E1,2.0502316E1,1.6901463E1,7.635218E0,2.5848286E1,1.9645636E1,3.4257706E1,3.9700253E1,3.170387E1,2.5009825E1],"categories":[],"categories_nodes":[],"categories_segments":[],"categories_sizes":[],"default_left":[0,0,0,0,0,0,0,0,0,0,0,0,0,0,0,0,0,0,0,0,0,0,0,0,0,0,0,0,0,0,0,0,0,0,0,0,0,0,0,0,0,0,0,0,0,0,0,0,0,0,0,0,0,0,0,0,0,0,0,0,0,0,0,0,0,0,0,0,0,0,0,0,0,0,0,0,0,0,0,0,0],"id":22,"left_children":[1,3,5,7,9,11,13,15,17,19,21,23,25,27,29,-1,-1,31,-1,-1,33,35,37,39,41,43,45,47,49,51,53,-1,-1,-1,-1,-1,-1,-1,55,57,-1,59,61,63,65,67,69,71,73,-1,75,77,79,-1,-1,-1,-1,-1,-1,-1,-1,-1,-1,-1,-1,-1,-1,-1,-1,-1,-1,-1,-1,-1,-1,-1,-1,-1,-1,-1,-1],"loss_changes":[3.7841078E8,1.7667488E7,2.6734048E7,2.265136E6,2.036144E6,4.553336E6,8.57072E6,5.1512E4,3.27584E5,2.28062E5,1.72992E5,1.944705E5,1.90271E5,1.39256E6,1.5726E6,0E0,0E0,1.05448E5,0E0,0E0,2.94335E4,3.15485E4,2.161525E4,1.0055825E5,3.3931977E4,4.1842875E4,9.1051E4,4.99356E5,2.96108E5,2.51528E5,1.56772E5,0E0,0E0,0E0,0E0,0E0,0E0,0E0,1.5815E3,2.33755E4,0E0,1.7837895E4,1.5266219E4,9.296594E3,2.0242188E4,3.4375E4,1.7918234E4,9.896E4,1.25087E5,0E0,1.38556E5,7.3516E4,4.832E3,0E0,0E0,0E0,0E0,0E0,0E0,0E0,0E0,0E0,0E0,0E0,0E0,0E0,0E0,0E0,0E0,0E0,0E0,0E0,0E0,0E0,0E0,0E0,0E0,0E0,0E0,0E0,0E0],"parents":[2147483647,0,0,1,1,2,2,3,3,4,4,5,5,6,6,7,7,8,8,9,9,10,10,11,11,12,12,13,13,14,14,17,17,20,20,21,21,22,22,23,23,24,24,25,25,26,26,27,27,28,28,29,29,30,30,38,38,39,39,41,41,42,42,43,43,44,44,45,45,46,46,47,47,48,48,50,50,51,51,52,52],"right_children":[2,4,6,8,10,12,14,16,18,20,22,24,26,28,30,-1,-1,32,-1,-1,34,36,38,40,42,44,46,48,50,52,54,-1,-1,-1,-1,-1,-1,-1,56,58,-1,60,62,64,66,68,70,72,74,-1,76,78,80,-1,-1,-1,-1,-1,-1,-1,-1,-1,-1,-1,-1,-1,-1,-1,-1,-1,-1,-1,-1,-1,-1,-1,-1,-1,-1,-1,-1],"split_conditions":[5.4523855E4,5.0785734E4,5.7475074E4,4.9165535E4,5.258494E4,5.627125E4,5.9011062E4,4.879588E4,1.638811E2,5.201299E4,5.357429E4,5.509839E4,5.6819926E4,5.833934E4,6.0083254E4,-8.622214E1,-7.040658E1,5.014303E4,-6.3281918E1,-4.470738E1,5.9320232E1,8.634284E1,4.4293774E1,2.2465193E2,1.3918794E2,1.4778542E2,2.8196686E2,1.6059567E2,1.079996E2,2.0021974E2,6.0765402E4,-5.8062233E1,-4.9876583E1,-2.171263E1,-3.5427456E1,-1.9223291E1,-2.8235327E1,-6.7660155E0,1.6437181E2,5.4978594E4,-1.6047426E1,5.5472965E4,5.61658E4,5.6415992E4,5.6643758E4,5.7157246E4,3.9545208E1,8.634284E1,3.390195E2,3.0378983E1,2.6715048E2,5.9449902E4,3.0946283E2,4.4321228E1,5.6328014E1,-1.9019209E1,-5.257422E0,-1.053513E1,-7.0391755E0,-3.980333E0,5.1390624E-1,-7.3600082E0,2.9525392E0,4.3603797E0,9.849526E0,2.678177E0,6.574717E0,1.0677017E1,1.4390388E1,6.452417E0,-1.5319337E0,2.462725E1,2.0502316E1,1.6901463E1,7.635218E0,2.5848286E1,1.9645636E1,3.4257706E1,3.9700253E1,3.170387E1,2.5009825E1],"split_indices":[1,1,1,0,1,1,1,0,4,0,0,6,2,1,1,0,0,1,0,0,4,4,4,4,4,4,4,4,4,4,1,0,0,0,0,0,0,0,5,1,0,1,0,1,1,1,5,4,4,0,4,1,4,0,0,0,0,0,0,0,0,0,0,0,0,0,0,0,0,0,0,0,0,0,0,0,0,0,0,0,0],"split_type":[0,0,0,0,0,0,0,0,0,0,0,0,0,0,0,0,0,0,0,0,0,0,0,0,0,0,0,0,0,0,0,0,0,0,0,0,0,0,0,0,0,0,0,0,0,0,0,0,0,0,0,0,0,0,0,0,0,0,0,0,0,0,0,0,0,0,0,0,0,0,0,0,0,0,0,0,0,0,0,0,0],"sum_hessian":[3.164E3,9.23E2,2.241E3,6.54E2,2.69E2,4.89E2,1.752E3,1.71E2,4.83E2,1.37E2,1.32E2,2.22E2,2.67E2,1.193E3,5.59E2,2.7E1,1.44E2,2.86E2,1.97E2,8.4E1,5.3E1,7.1E1,6.1E1,1.57E2,6.5E1,9.5E1,1.72E2,6.26E2,5.67E2,4.23E2,1.36E2,1.97E2,8.9E1,8E0,4.5E1,1.5E1,5.6E1,3E0,5.8E1,1.24E2,3.3E1,3.6E1,2.9E1,3.8E1,5.7E1,1.54E2,1.8E1,3.6E2,2.66E2,1.8E2,3.87E2,2.82E2,1.41E2,1.01E2,3.5E1,5.7E1,1E0,8.7E1,3.7E1,2.2E1,1.4E1,2.8E1,1E0,6E0,3.2E1,2.9E1,2.8E1,6E1,9.4E1,1.5E1,3E0,1.45E2,2.15E2,2.48E2,1.8E1,3.26E2,6.1E1,1.5E2,1.32E2,1.15E2,2.6E1],"tree_param":{"num_deleted":"0","num_feature":"9","num_nodes":"81","size_leaf_vector":"1"}},{"base_weights":[-4.133595E0,-4.873806E2,2.0013829E2,-5.671377E2,-2.9638193E2,3.4715557E0,2.5083267E2,-6.6975073E2,-5.341567E2,-3.638399E2,-1.9979028E2,-8.48464E1,9.177461E1,1.9809227E2,3.268078E2,-7.791692E1,-6.3850674E1,-5.008448E2,-5.7552986E1,-4.062884E1,-3.0557565E2,-1.7312964E2,-2.6134985E1,-7.1867485E1,-1.2975414E2,6.762178E1,1.11748665E2,1.630291E2,2.2167145E2,2.945228E2,4.0469766E2,-5.2341328E1,-4.5205345E1,-2.1195282E1,-3.202776E1,-1.952594E2,-1.2031585E2,-9.333996E1,-4.487246E1,-1.4177881E2,-7.885905E1,8.347477E1,3.4945103E1,1.3796485E1,9.3273895E1,1.921369E2,1.3938191E2,2.4847409E2,1.9574825E2,3.150379E2,2.577065E2,3.8019882E2,5.0751602E1,-9.088965E0,-1.9922762E1,-7.0043616E0,-1.2819922E1,-5.482796E0,-1.0399314E1,-5.0623736E0,2.1742187E-1,-1.1962389E1,-1.7859106E1,-1.5213542E0,-9.00668E0,6.0945463E0,9.416174E0,7.691797E-1,4.3430386E0,9.567795E0,4.887956E0,1.7403784E1,2.0719828E1,1.4373772E1,6.887256E0,2.718747E1,2.3371521E1,2.0594503E1,1.4490544E1,2.9594404E1,3.391099E1,2.6486628E1,2.0153172E1,3.964764E1,3.0833235E1],"categories":[],"categories_nodes":[],"categories_segments":[],"categories_sizes":[],"default_left":[0,0,0,0,0,0,0,0,0,0,0,0,0,0,0,0,0,0,0,0,0,0,0,0,0,0,0,0,0,0,0,0,0,0,0,0,0,0,0,0,0,0,0,0,0,0,0,0,0,0,0,0,0,0,0,0,0,0,0,0,0,0,0,0,0,0,0,0,0,0,0,0,0,0,0,0,0,0,0,0,0,0,0,0,0],"id":23,"left_children":[1,3,5,7,9,11,13,15,17,19,21,23,25,27,29,-1,-1,31,-1,-1,33,35,-1,37,39,41,43,45,47,49,51,-1,-1,-1,-1,53,55,57,59,61,63,65,67,-1,69,71,73,75,77,79,81,83,-1,-1,-1,-1,-1,-1,-1,-1,-1,-1,-1,-1,-1,-1,-1,-1,-1,-1,-1,-1,-1,-1,-1,-1,-1,-1,-1,-1,-1,-1,-1,-1,-1],"loss_changes":[3.179559E8,1.4410384E7,2.2570984E7,1.923232E6,1.777816E6,3.6342035E6,7.147792E6,4.948E4,4.21536E5,2.86406E5,1.500575E5,1.26479625E5,1.048495E5,8.4436E5,1.731608E6,0E0,0E0,8.6032E4,0E0,0E0,3.3973E4,7.702025E4,0E0,1.01887625E5,2.0031312E4,5.3029438E4,4.8158125E4,2.70573E5,3.91872E5,3.14584E5,3.43572E5,0E0,0E0,0E0,0E0,6.32775E3,2.1172812E3,3.5736062E4,2.2568078E4,1.12591875E4,7.1896484E3,1.1596719E4,8.222266E3,0E0,3.5411875E3,1.60055E4,6.4425E4,4.2832E4,1.39686E5,5.224E4,2.4246E4,8.364E4,0E0,0E0,0E0,0E0,0E0,0E0,0E0,0E0,0E0,0E0,0E0,0E0,0E0,0E0,0E0,0E0,0E0,0E0,0E0,0E0,0E0,0E0,0E0,0E0,0E0,0E0,0E0,0E0,0E0,0E0,0E0,0E0,0E0],"parents":[2147483647,0,0,1,1,2,2,3,3,4,4,5,5,6,6,7,7,8,8,9,9,10,10,11,11,12,12,13,13,14,14,17,17,20,20,21,21,23,23,24,24,25,25,26,26,27,27,28,28,29,29,30,30,35,35,36,36,37,37,38,38,39,39,40,40,41,41,42,42,44,44,45,45,46,46,47,47,48,48,49,49,50,50,51,51],"right_children":[2,4,6,8,10,12,14,16,18,20,22,24,26,28,30,-1,-1,32,-1,-1,34,36,-1,38,40,42,44,46,48,50,52,-1,-1,-1,-1,54,56,58,60,62,64,66,68,-1,70,72,74,76,78,80,82,84,-1,-1,-1,-1,-1,-1,-1,-1,-1,-1,-1,-1,-1,-1,-1,-1,-1,-1,-1,-1,-1,-1,-1,-1,-1,-1,-1,-1,-1,-1,-1,-1,-1],"split_conditions":[5.4523855E4,5.069234E4,5.742218E4,4.9137164E4,5.309095E4,5.61658E4,5.8798617E4,4.8789523E4,1.638811E2,5.202135E4,1.9665822E2,2.1381552E2,5.700473E4,5.807457E4,5.981884E4,-7.791692E1,-6.3850674E1,5.0102375E4,-5.7552986E1,-4.062884E1,6.971665E1,5.4104426E4,-2.6134985E1,5.5044984E4,5.517153E4,1.6619807E2,1.2443168E2,1.3008932E2,1.3988858E2,1.8645892E2,6.0765402E4,-5.2341328E1,-4.5205345E1,-2.1195282E1,-3.202776E1,4.8454063E1,5.273564E1,8.791234E1,5.5689348E4,2.7526346E2,5.99E2,5.6578113E4,5.6578113E4,1.3796485E1,3.3415845E2,5.7846918E4,3.296993E2,7.9724304E1,2.8196686E2,5.926518E4,3.1607675E2,2.4828903E2,5.0751602E1,-9.088965E0,-1.9922762E1,-7.0043616E0,-1.2819922E1,-5.482796E0,-1.0399314E1,-5.0623736E0,2.1742187E-1,-1.1962389E1,-1.7859106E1,-1.5213542E0,-9.00668E0,6.0945463E0,9.416174E0,7.691797E-1,4.3430386E0,9.567795E0,4.887956E0,1.7403784E1,2.0719828E1,1.4373772E1,6.887256E0,2.718747E1,2.3371521E1,2.0594503E1,1.4490544E1,2.9594404E1,3.391099E1,2.6486628E1,2.0153172E1,3.964764E1,3.0833235E1],"split_indices":[1,0,1,0,6,0,1,2,4,2,4,4,1,1,1,0,0,1,0,0,4,0,0,1,1,4,4,4,4,4,1,0,0,0,0,4,4,4,0,4,3,1,1,0,4,1,4,4,4,1,4,4,0,0,0,0,0,0,0,0,0,0,0,0,0,0,0,0,0,0,0,0,0,0,0,0,0,0,0,0,0,0,0,0,0],"split_type":[0,0,0,0,0,0,0,0,0,0,0,0,0,0,0,0,0,0,0,0,0,0,0,0,0,0,0,0,0,0,0,0,0,0,0,0,0,0,0,0,0,0,0,0,0,0,0,0,0,0,0,0,0,0,0,0,0,0,0,0,0,0,0,0,0,0,0,0,0,0,0,0,0,0,0,0,0,0,0,0,0,0,0,0,0],"sum_hessian":[3.219E3,9.56E2,2.263E3,6.73E2,2.83E2,4.64E2,1.799E3,1.59E2,5.14E2,1.65E2,1.18E2,2.32E2,2.32E2,1.064E3,7.35E2,3E1,1.29E2,2.92E2,2.22E2,9.2E1,7.3E1,8.5E1,3.3E1,1.82E2,5E1,1.07E2,1.25E2,4.31E2,6.33E2,5.23E2,2.12E2,1.93E2,9.9E1,1.2E1,6.1E1,5.8E1,2.7E1,1E2,8.2E1,3.9E1,1.1E1,7.1E1,3.6E1,4.9E1,7.6E1,1.9E2,2.41E2,3.07E2,3.26E2,3.31E2,1.92E2,1.75E2,3.7E1,3E0,5.5E1,5E0,2.2E1,2.3E1,7.7E1,7.3E1,9E0,2.7E1,1.2E1,2E0,9E0,2.5E1,4.6E1,9E0,2.7E1,7.1E1,5E0,9.2E1,9.8E1,2.26E2,1.5E1,1.12E2,1.95E2,2.69E2,5.7E1,1.92E2,1.39E2,1.67E2,2.5E1,1.39E2,3.6E1],"tree_param":{"num_deleted":"0","num_feature":"9","num_nodes":"85","size_leaf_vector":"1"}},{"base_weights":[-6.527235E-1,-4.4176498E2,1.7788379E2,-4.9831937E2,-2.3511212E2,-8.651722E0,2.23174E2,-5.5490564E2,-4.4491415E2,-2.7511142E2,-1.5160442E2,-8.037033E1,7.1605354E1,1.7606506E2,2.9378995E2,-6.43188E1,-5.281985E2,-4.6060187E2,-3.778114E1,-2.2815433E2,-3.0794507E2,-1.3628459E2,-2.0475722E2,-6.834411E1,-1.2374101E2,3.481899E1,8.5322945E1,1.4602426E2,2.013245E2,2.5569621E2,3.4453516E2,-5.0392345E1,-6.0073097E1,-4.4491875E1,-5.2409847E1,-2.5716541E1,-1.8685045E2,-3.4379494E1,-2.6895628E1,-8.5623535E1,-1.4188884E2,-2.1414192E1,-4.6070313E0,-8.269825E1,-4.3727497E1,-1.4790021E1,-1.01146416E2,4.9082222E1,2.2078536E0,1.0160878E2,6.703088E1,1.6987323E2,1.19621994E2,2.1066978E2,1.5168547E2,2.7828558E1,2.2797278E2,3.147527E2,3.9188715E2,-4.617969E0,-1.9035011E1,-1.6966797E0,-9.300781E0,-5.5983076E0,-1.4440684E1,-5.0200667E0,-9.143162E0,4.556818E-1,-5.1717663E0,-1.038411E1,-1.2847656E0,5.3843303E0,1.8265066E0,-3.2101562E0,1.3497136E0,1.0304759E1,4.8869143E0,4.9796047E0,7.8698764E0,1.8940641E1,1.535261E1,1.2723788E1,7.7599998E0,2.313565E1,1.966393E1,8.83157E0,1.57883E1,2.309665E1,1.4043967E1,3.576926E1,2.9546621E1,4.003843E1,2.617793E1],"categories":[],"categories_nodes":[],"categories_segments":[],"categories_sizes":[],"default_left":[0,0,0,0,0,0,0,0,0,0,0,0,0,0,0,0,0,0,0,0,0,0,0,0,0,0,0,0,0,0,0,0,0,0,0,0,0,0,0,0,0,0,0,0,0,0,0,0,0,0,0,0,0,0,0,0,0,0,0,0,0,0,0,0,0,0,0,0,0,0,0,0,0,0,0,0,0,0,0,0,0,0,0,0,0,0,0,0,0,0,0,0,0],"id":24,"left_children":[1,3,5,7,9,11,13,15,17,19,21,23,25,27,29,-1,31,33,-1,35,37,39,41,43,45,47,49,51,53,55,57,-1,-1,-1,-1,-1,59,-1,-1,61,63,-1,-1,65,67,-1,69,71,73,75,77,79,81,83,85,-1,87,89,91,-1,-1,-1,-1,-1,-1,-1,-1,-1,-1,-1,-1,-1,-1,-1,-1,-1,-1,-1,-1,-1,-1,-1,-1,-1,-1,-1,-1,-1,-1,-1,-1,-1,-1],"loss_changes":[2.520147E8,1.0658368E7,1.9246992E7,1.938016E6,6.26341E5,2.5728982E6,6.046016E6,4.78424E5,2.2284E5,1.36339E5,2.6652125E4,1.14637125E5,1.03504E5,8.06816E5,1.326912E6,0E0,1.76192E5,6.656E4,0E0,2.26465E4,1.37625E4,3.4664375E3,9.4944375E3,6.2460375E4,1.23338125E4,2.7334906E4,3.8768E4,2.98921E5,2.44526E5,2.00838E5,3.15248E5,0E0,0E0,0E0,0E0,0E0,4.994125E3,0E0,0E0,2.4778047E3,2.298625E3,0E0,0E0,2.861625E4,2.7627438E4,0E0,5.5660625E3,5.0321875E3,7.792524E3,9.588125E2,1.1163156E4,5.52195E4,6.8215E4,9.9338E4,2.45445E4,0E0,1.8662E4,5.6634E4,2.343E4,0E0,0E0,0E0,0E0,0E0,0E0,0E0,0E0,0E0,0E0,0E0,0E0,0E0,0E0,0E0,0E0,0E0,0E0,0E0,0E0,0E0,0E0,0E0,0E0,0E0,0E0,0E0,0E0,0E0,0E0,0E0,0E0,0E0,0E0],"parents":[2147483647,0,0,1,1,2,2,3,3,4,4,5,5,6,6,7,7,8,8,9,9,10,10,11,11,12,12,13,13,14,14,16,16,17,17,19,19,20,20,21,21,22,22,23,23,24,24,25,25,26,26,27,27,28,28,29,29,30,30,36,36,39,39,40,40,43,43,44,44,46,46,47,47,48,48,49,49,50,50,51,51,52,52,53,53,54,54,56,56,57,57,58,58],"right_children":[2,4,6,8,10,12,14,16,18,20,22,24,26,28,30,-1,32,34,-1,36,38,40,42,44,46,48,50,52,54,56,58,-1,-1,-1,-1,-1,60,-1,-1,62,64,-1,-1,66,68,-1,70,72,74,76,78,80,82,84,86,-1,88,90,92,-1,-1,-1,-1,-1,-1,-1,-1,-1,-1,-1,-1,-1,-1,-1,-1,-1,-1,-1,-1,-1,-1,-1,-1,-1,-1,-1,-1,-1,-1,-1,-1,-1,-1],"split_conditions":[5.435965E4,5.174876E4,5.732739E4,4.965062E4,5.351818E4,5.574386E4,5.8798617E4,4.8974957E4,5.0714168E4,1.3840324E2,2.1381552E2,2.1381552E2,5.6643758E4,5.809784E4,5.9551926E4,-6.43188E1,2.2214537E2,2.3530302E2,-3.778114E1,5.258494E4,5.2366406E4,2.278E3,8.2285904E1,5.5044984E4,5.474363E4,2.0547064E2,1.4977534E2,1.4977534E2,2.3967487E2,1.6059567E2,6.010474E4,-5.0392345E1,-6.0073097E1,-4.4491875E1,-5.2409847E1,-2.5716541E1,-9.8034645E1,-3.4379494E1,-2.6895628E1,5.357429E4,1.037862E2,-2.1414192E1,-4.6070313E0,8.864392E1,5.761795E1,-1.4790021E1,2.9917825E2,8.556E3,2.3228119E2,1.5782744E2,5.706945E4,8.51581E1,2.8023846E2,1.06812256E2,9.8640526E1,2.7828558E1,3.4339905E2,1.2363634E2,3.1607675E2,-4.617969E0,-1.9035011E1,-1.6966797E0,-9.300781E0,-5.5983076E0,-1.4440684E1,-5.0200667E0,-9.143162E0,4.556818E-1,-5.1717663E0,-1.038411E1,-1.2847656E0,5.3843303E0,1.8265066E0,-3.2101562E0,1.3497136E0,1.0304759E1,4.8869143E0,4.9796047E0,7.8698764E0,1.8940641E1,1.535261E1,1.2723788E1,7.7599998E0,2.313565E1,1.966393E1,8.83157E0,1.57883E1,2.309665E1,1.4043967E1,3.576926E1,2.9546621E1,4.003843E1,2.617793E1],"split_indices":[2,2,1,1,1,1,1,2,1,4,4,4,1,1,1,0,4,4,0,1,1,3,5,1,2,4,4,4,4,4,2,0,0,0,0,0,5,0,0,0,8,0,0,4,4,0,8,3,4,5,1,4,4,4,8,0,4,4,4,0,0,0,0,0,0,0,0,0,0,0,0,0,0,0,0,0,0,0,0,0,0,0,0,0,0,0,0,0,0,0,0,0,0],"split_type":[0,0,0,0,0,0,0,0,0,0,0,0,0,0,0,0,0,0,0,0,0,0,0,0,0,0,0,0,0,0,0,0,0,0,0,0,0,0,0,0,0,0,0,0,0,0,0,0,0,0,0,0,0,0,0,0,0,0,0,0,0,0,0,0,0,0,0,0,0,0,0,0,0,0,0,0,0,0,0,0,0,0,0,0,0,0,0,0,0,0,0,0,0],"sum_hessian":[3.198E3,9.21E2,2.277E3,7.22E2,1.99E2,4.45E2,1.832E3,3.46E2,3.76E2,1.33E2,6.6E1,2.35E2,2.1E2,1.101E3,7.31E2,7.5E1,2.71E2,3E2,7.6E1,5.8E1,7.5E1,5.4E1,1.2E1,1.86E2,4.9E1,5.8E1,1.52E2,5.06E2,5.95E2,4.21E2,3.1E2,2.09E2,6.2E1,2.47E2,5.3E1,3.1E1,2.7E1,3.5E1,4E1,7E0,4.7E1,1.1E1,1E0,1.16E2,7E1,2.1E1,2.8E1,4E1,1.8E1,7.8E1,7.4E1,2.63E2,2.43E2,4.98E2,9.7E1,2.27E2,1.94E2,1.95E2,1.15E2,1E0,2.6E1,1E0,6E0,2E0,4.5E1,2.6E1,9E1,1E1,6E1,2.7E1,1E0,3.4E1,6E0,4E0,1.4E1,7.5E1,3E0,3.2E1,4.2E1,1.15E2,1.48E2,2.04E2,3.9E1,1.95E2,3.03E2,1E1,8.7E1,1.86E2,8E0,5.5E1,1.4E2,1.06E2,9E0],"tree_param":{"num_deleted":"0","num_feature":"9","num_nodes":"93","size_leaf_vector":"1"}},{"base_weights":[-2.393198E0,-3.9367184E2,1.6226591E2,-4.606186E2,-2.4329488E2,-5.19026E0,2.0282527E2,-5.386718E2,-4.3172583E2,-3.164046E2,-1.8492627E2,-7.115525E1,6.321927E1,1.6914015E2,2.868104E2,-6.500413E1,-5.147148E2,-4.1018176E2,-4.8415405E1,-2.803826E1,-3.4152813E1,-2.2076117E2,-1.3911395E2,-5.0930424E1,-9.202024E1,2.4841797E1,7.539602E1,1.4426096E2,2.0690262E2,2.6294043E2,3.558665E2,-4.719099E1,-5.712864E1,-4.2080265E1,-3.588813E1,-2.0378593E2,-2.7922678E1,-1.2335664E2,-1.865448E2,-6.9342E1,-3.3479145E1,-1.1162276E2,-7.1835045E1,6.3003582E1,1.3614281E1,9.758069E1,5.9620583E1,1.6570631E2,1.1883634E2,2.359243E1,1.8940714E2,3.0276487E1,2.4764641E2,3.3170132E2,4.3291324E2,-5.3214846E0,-2.0510157E1,-1.3699529E1,-1.0161328E1,-1.927329E1,-4.376758E0,-4.8209205E0,-7.7317615E0,-6.441201E-1,-4.4393735E0,-9.662478E0,-1.3416509E1,-5.98115E0,-1.0151355E1,6.7986865E0,4.09375E-1,-2.2437501E-1,3.3763568E0,7.43584E0,1.0522372E1,4.668983E0,7.2386804E0,1.36729765E1,1.7986502E1,9.991917E0,1.3710414E1,1.9576529E1,1.5514236E1,2.5354336E1,1.7546875E1,3.623172E1,2.8686253E1,4.4573513E1,1.7748568E1],"categories":[],"categories_nodes":[],"categories_segments":[],"categories_sizes":[],"default_left":[0,0,0,0,0,0,0,0,0,0,0,0,0,0,0,0,0,0,0,0,0,0,0,0,0,0,0,0,0,0,0,0,0,0,0,0,0,0,0,0,0,0,0,0,0,0,0,0,0,0,0,0,0,0,0,0,0,0,0,0,0,0,0,0,0,0,0,0,0,0,0,0,0,0,0,0,0,0,0,0,0,0,0,0,0,0,0,0,0],"id":25,"left_children":[1,3,5,7,9,11,13,15,17,19,21,23,25,27,29,-1,31,33,-1,-1,-1,35,37,39,41,43,45,47,49,51,53,-1,-1,-1,-1,55,-1,57,59,61,63,65,67,69,71,73,75,77,79,-1,81,-1,83,85,87,-1,-1,-1,-1,-1,-1,-1,-1,-1,-1,-1,-1,-1,-1,-1,-1,-1,-1,-1,-1,-1,-1,-1,-1,-1,-1,-1,-1,-1,-1,-1,-1,-1,-1],"loss_changes":[2.0752072E8,9.492096E6,1.5398324E7,1.253584E6,1.204614E6,2.0035951E6,5.114504E6,1.29664E5,3.5036E5,2.1891E4,2.434495E5,9.0683375E4,1.0000131E5,1.1962E6,7.65228E5,0E0,8.8792E4,4.0228E4,0E0,0E0,0E0,3.44045E4,3.3789625E4,3.527125E4,3.5506438E4,2.2279207E4,5.1927688E4,4.11046E5,2.1731E5,1.6317E5,1.00302E5,0E0,0E0,0E0,0E0,3.9425E3,0E0,3.8724375E3,6.584375E3,5.7112188E3,1.8010742E4,5.2931875E3,1.426825E4,3.2444492E3,1.3815462E4,4.0674375E3,1.2962875E4,1.50183E5,1.124355E5,0E0,4.087E4,0E0,7.8092E4,3.8835E4,1.25905E4,0E0,0E0,0E0,0E0,0E0,0E0,0E0,0E0,0E0,0E0,0E0,0E0,0E0,0E0,0E0,0E0,0E0,0E0,0E0,0E0,0E0,0E0,0E0,0E0,0E0,0E0,0E0,0E0,0E0,0E0,0E0,0E0,0E0,0E0],"parents":[2147483647,0,0,1,1,2,2,3,3,4,4,5,5,6,6,7,7,8,8,9,9,10,10,11,11,12,12,13,13,14,14,16,16,17,17,21,21,22,22,23,23,24,24,25,25,26,26,27,27,28,28,29,29,30,30,35,35,37,37,38,38,39,39,40,40,41,41,42,42,43,43,44,44,45,45,46,46,47,47,48,48,50,50,52,52,53,53,54,54],"right_children":[2,4,6,8,10,12,14,16,18,20,22,24,26,28,30,-1,32,34,-1,-1,-1,36,38,40,42,44,46,48,50,52,54,-1,-1,-1,-1,56,-1,58,60,62,64,66,68,70,72,74,76,78,80,-1,82,-1,84,86,88,-1,-1,-1,-1,-1,-1,-1,-1,-1,-1,-1,-1,-1,-1,-1,-1,-1,-1,-1,-1,-1,-1,-1,-1,-1,-1,-1,-1,-1,-1,-1,-1,-1,-1],"split_conditions":[5.4523855E4,5.0714168E4,5.732739E4,4.9269844E4,5.21964E4,5.574386E4,5.9110055E4,4.890388E4,2.1180351E2,1.26509705E2,5.351818E4,1.4575427E2,5.6479992E4,5.8445414E4,6.0135223E4,-6.500413E1,1.7258603E2,5.039797E4,-4.8415405E1,-2.803826E1,-3.4152813E1,2.182401E2,1.9665822E2,5.4933832E4,5.4933832E4,9.081474E1,1.2735969E2,1.5459616E2,1.17593864E2,1.0969806E2,6.0886402E4,-4.719099E1,-5.712864E1,-4.2080265E1,-3.588813E1,8.706961E0,-2.7922678E1,5.4198785E4,8.2285904E1,8.791234E1,6.871226E1,2.3379901E2,2.503185E2,8.794E3,2.2407767E2,5.6858324E4,5.706945E4,5.7878023E4,5.7976266E4,2.359243E1,2.6715048E2,3.0276487E1,3.0946283E2,1.7258603E2,3.615154E2,-5.3214846E0,-2.0510157E1,-1.3699529E1,-1.0161328E1,-1.927329E1,-4.376758E0,-4.8209205E0,-7.7317615E0,-6.441201E-1,-4.4393735E0,-9.662478E0,-1.3416509E1,-5.98115E0,-1.0151355E1,6.7986865E0,4.09375E-1,-2.2437501E-1,3.3763568E0,7.43584E0,1.0522372E1,4.668983E0,7.2386804E0,1.36729765E1,1.7986502E1,9.991917E0,1.3710414E1,1.9576529E1,1.5514236E1,2.5354336E1,1.7546875E1,3.623172E1,2.8686253E1,4.4573513E1,1.7748568E1],"split_indices":[1,1,1,1,6,1,1,1,4,4,1,4,6,1,1,0,4,1,0,0,0,4,4,1,1,4,4,4,4,4,1,0,0,0,0,4,0,1,5,4,4,4,4,3,8,7,1,1,1,0,4,0,4,4,4,0,0,0,0,0,0,0,0,0,0,0,0,0,0,0,0,0,0,0,0,0,0,0,0,0,0,0,0,0,0,0,0,0,0],"split_type":[0,0,0,0,0,0,0,0,0,0,0,0,0,0,0,0,0,0,0,0,0,0,0,0,0,0,0,0,0,0,0,0,0,0,0,0,0,0,0,0,0,0,0,0,0,0,0,0,0,0,0,0,0,0,0,0,0,0,0,0,0,0,0,0,0,0,0,0,0,0,0,0,0,0,0,0,0,0,0,0,0,0,0,0,0,0,0,0,0],"sum_hessian":[3.219E3,9.53E2,2.266E3,6.58E2,2.95E2,4.42E2,1.824E3,1.73E2,4.85E2,1.29E2,1.66E2,2.25E2,2.17E2,1.304E3,5.2E2,2.6E1,1.47E2,3.5E2,1.35E2,5.8E1,7.1E1,9.1E1,7.5E1,1.16E2,1.09E2,5.3E1,1.64E2,7.89E2,5.15E2,3.9E2,1.3E2,8.9E1,5.8E1,2.84E2,6.6E1,7.4E1,1.7E1,5.9E1,1.6E1,5.5E1,6.1E1,5.3E1,5.6E1,1.1E1,4.2E1,6.6E1,9.8E1,4.25E2,3.64E2,1.89E2,3.26E2,1.03E2,2.87E2,1.03E2,2.7E1,1E0,7.3E1,3.3E1,2.6E1,1.5E1,1E0,1.7E1,3.8E1,1.8E1,4.3E1,3.5E1,1.8E1,4.2E1,1.4E1,1E1,1E0,2.4E1,1.8E1,1.9E1,4.7E1,5.1E1,4.7E1,1.43E2,2.82E2,1.82E2,1.82E2,2.71E2,5.5E1,2.63E2,2.4E1,5.7E1,4.6E1,2.5E1,2E0],"tree_param":{"num_deleted":"0","num_feature":"9","num_nodes":"89","size_leaf_vector":"1"}},{"base_weights":[8.9459157E-1,-3.4684543E2,1.4972441E2,-4.020953E2,-1.6573495E2,3.1479034E1,1.9137543E2,-4.515146E2,-3.5975452E2,-2.0474962E2,-1.1530926E2,-5.695506E1,7.852972E1,1.6321504E2,2.613093E2,-5.277426E1,-4.2913403E1,-3.749752E1,-3.1205765E2,-2.1977896E1,-1.8230673E1,-1.4059706E2,-1.0500537E1,-6.499912E1,-2.0528063E1,4.6621128E1,9.277719E1,1.416976E2,1.9134142E2,2.4004593E2,3.2486096E2,-8.885157E0,-3.1338789E1,-1.4655681E2,-4.6053386E0,-7.519551E1,-5.522279E1,7.3754883E0,-2.7066784E1,3.0240625E1,5.7655468E1,8.1455956E1,1.0169108E2,1.25931625E2,1.4961687E1,1.7390228E2,1.9721846E1,2.2196098E1,2.5433745E2,2.9996567E1,4.0248547E1,-8.295982E0,-1.6314692E1,-7.702646E0,-2.2066407E0,-6.008292E0,-3.887534E0,-1.2316407E0,3.0146484E0,-8.990886E0,-1.9632543E0,2.2792969E0,5.192546E0,5.0020127E0,6.9398284E0,8.219554E0,2.5213542E0,1.0555639E1,5.102051E0,5.026172E0,1.2637495E1,2.115039E0,1.748771E1,5.951172E0,2.5504591E1],"categories":[],"categories_nodes":[],"categories_segments":[],"categories_sizes":[],"default_left":[0,0,0,0,0,0,0,0,0,0,0,0,0,0,0,0,0,0,0,0,0,0,0,0,0,0,0,0,0,0,0,0,0,0,0,0,0,0,0,0,0,0,0,0,0,0,0,0,0,0,0,0,0,0,0,0,0,0,0,0,0,0,0,0,0,0,0,0,0,0,0,0,0,0,0],"id":26,"left_children":[1,3,5,7,9,11,13,15,17,19,21,23,25,27,29,-1,-1,-1,31,-1,-1,33,-1,35,37,39,41,43,45,47,49,-1,-1,51,-1,53,55,57,59,61,63,65,67,69,-1,71,-1,-1,73,-1,-1,-1,-1,-1,-1,-1,-1,-1,-1,-1,-1,-1,-1,-1,-1,-1,-1,-1,-1,-1,-1,-1,-1,-1,-1],"loss_changes":[1.642159E8,9.449368E6,1.0937412E7,1.36088E6,4.17075E5,2.4177855E6,3.193012E6,3.39928E5,1.71196E5,2.096E3,1.1292875E4,5.7856E4,1.6797425E5,6.834E5,5.57142E5,0E0,0E0,0E0,2.44E3,0E0,0E0,7.9004062E3,0E0,1.22951875E4,7.1328643E3,1.97655E4,1.8056E4,6.4687E4,1.7564E4,3.556E4,1.01504E5,0E0,0E0,1.17873125E4,0E0,5.887875E3,4.6559062E3,3.9585288E3,1.2717537E4,6.8915273E3,2.8049219E3,2.919125E3,2.242625E4,1.36375E3,0E0,1.6553E4,0E0,0E0,1.1322E4,0E0,0E0,0E0,0E0,0E0,0E0,0E0,0E0,0E0,0E0,0E0,0E0,0E0,0E0,0E0,0E0,0E0,0E0,0E0,0E0,0E0,0E0,0E0,0E0,0E0,0E0],"parents":[2147483647,0,0,1,1,2,2,3,3,4,4,5,5,6,6,7,7,8,8,9,9,10,10,11,11,12,12,13,13,14,14,18,18,21,21,23,23,24,24,25,25,26,26,27,27,28,28,29,29,30,30,33,33,35,35,36,36,37,37,38,38,39,39,40,40,41,41,42,42,43,43,45,45,48,48],"right_children":[2,4,6,8,10,12,14,16,18,20,22,24,26,28,30,-1,-1,-1,32,-1,-1,34,-1,36,38,40,42,44,46,48,50,-1,-1,52,-1,54,56,58,60,62,64,66,68,70,-1,72,-1,-1,74,-1,-1,-1,-1,-1,-1,-1,-1,-1,-1,-1,-1,-1,-1,-1,-1,-1,-1,-1,-1,-1,-1,-1,-1,-1,-1],"split_conditions":[5.4663125E4,5.1988277E4,5.7743152E4,4.9541965E4,5.34671E4,5.61658E4,5.92403E4,4.8973184E4,5.0659066E4,5.247432E4,5.3541348E4,5.5319027E4,5.697015E4,5.850814E4,6.011643E4,-5.277426E1,-4.2913403E1,-3.749752E1,1.0690515E2,-2.1977896E1,-1.8230673E1,7.242E3,-1.0500537E1,5.4933832E4,1.523E3,5.6643758E4,5.745064E4,5.801846E4,5.8688348E4,5.957578E4,6.0811336E4,-8.885157E0,-3.1338789E1,2.886E3,-4.6053386E0,5.509357E4,6.725E3,2.0162071E2,1.765E3,2.4232858E2,5.6872426E4,